{"version": "0.1", "num_input_channels": 1, "num_output_channels": 1, "layers": [{"activation": "tanh", "weights": [[0.025266194716095924, 0.21255774796009064, 0.11454328894615173, -0.06717387586832047, -0.05020763352513313, -0.11566819995641708, -0.2618997097015381, 0.22196751832962036, -0.2992926239967346, 0.07886162400245667, -0.2735845148563385, -0.10522061586380005, -0.004700551740825176, -0.011151510290801525, -0.23749954998493195, -0.1400255411863327, 0.29749199748039246, 0.13627922534942627, -0.008273412473499775, -0.17649751901626587, -0.015654562041163445, 0.3180842399597168, 0.04193979129195213, -0.11048708111047745, 0.08992870897054672, -0.059614889323711395, 0.24978506565093994, 0.16781988739967346, -0.02565150521695614, 0.02308068796992302, -0.25017833709716797, 0.06468362361192703], [0.016059167683124542, -0.04179466888308525, 0.1702052354812622, 0.02568954788148403, -0.06323765963315964, 0.1357700228691101, 0.23506633937358856, 0.23181354999542236, -0.3284168541431427, -0.1468653678894043, -0.2357599437236786, 0.16383107006549835, -0.18221119046211243, 0.14825311303138733, 0.26645076274871826, 0.2643044888973236, 0.03901052847504616, -0.04338689520955086, 0.048966120928525925, -0.15006870031356812, -0.09245096892118454, 0.16656999289989471, -0.3574879467487335, -0.153600811958313, -0.033576615154743195, -0.23950153589248657, 0.03744843229651451, 0.09772146493196487, 0.09099920839071274, 0.20188353955745697, -0.08937563747167587, -0.022383861243724823], [-0.1006065383553505, 0.09168554842472076, 0.0025732009671628475, 0.1591886729001999, -0.08291006833314896, -0.1760147660970688, 0.2916790544986725, -0.19198815524578094, 0.19486232101917267, 0.045763056725263596, -0.41634440422058105, 0.049471717327833176, -0.014375314116477966, 0.12548288702964783, -0.1170143261551857, -0.1330275982618332, 0.08690629154443741, -0.08835076540708542, -0.010451182723045349, -0.2559904158115387, -0.037924326956272125, 0.013989647850394249, -0.08618056029081345, 0.07557188719511032, -0.07129590958356857, -0.41264617443084717, 0.17223931849002838, -0.28217148780822754, -0.24087519943714142, -0.23921814560890198, 0.22486257553100586, -0.08645391464233398], [-0.1619282364845276, 0.3443884253501892, -0.12549956142902374, 0.1132708489894867, 0.2595195770263672, -0.22492998838424683, -0.11136714369058609, 0.10494735836982727, 0.12056377530097961, 0.20463062822818756, -0.11874902993440628, 0.03076898492872715, 0.12517870962619781, -0.34532666206359863, -0.15013445913791656, -0.13255317509174347, 0.17737933993339539, 0.30392077565193176, -0.17413851618766785, 0.08020778745412827, 0.08193203061819077, 0.00726155424490571, 0.014980010688304901, -0.05371604859828949, 0.1649520993232727, -0.010660194791853428, 0.271275132894516, -0.1074940636754036, -0.10649698972702026, -0.23499666154384613, -0.10876456648111343, -0.14428511261940002], [0.04413171857595444, -0.4407813251018524, 0.07537685334682465, 0.15816029906272888, -0.044079117476940155, -0.015798654407262802, 0.1616341769695282, 0.05803772434592247, -0.022250769659876823, 0.2328970581293106, 0.28178003430366516, -0.08579547703266144, -0.13842453062534332, 0.10883040726184845, -0.3022269904613495, -0.07839930802583694, -0.15410178899765015, 0.15848620235919952, 0.2875522971153259, 0.19429083168506622, -0.19475220143795013, 0.19018645584583282, 0.017498642206192017, -0.2762124836444855, 0.2793826758861542, 0.0588945709168911, -0.29960283637046814, 0.1517852395772934, 0.010630165226757526, 0.24280498921871185, -0.3664880096912384, 0.24760864675045013], [0.0872144028544426, 0.14972983300685883, -0.29527655243873596, 0.2844652235507965, -0.04470469430088997, -0.3593646287918091, 0.11036466062068939, -0.014694319106638432, -0.022118642926216125, -0.21997636556625366, -0.3056899905204773, 0.10718708485364914, 0.12803635001182556, -0.03791925311088562, 0.1755351424217224, 0.18737004697322845, -0.11425723135471344, -0.07472989708185196, 0.3439907729625702, 0.2037585973739624, -0.030708760023117065, 0.13448229432106018, -0.09561070054769516, 0.21939851343631744, 0.1857345700263977, -0.011919953860342503, -0.10732465237379074, -0.25899913907051086, 0.19887815415859222, -0.15123005211353302, -0.026826953515410423, -0.09521298855543137], [0.021561728790402412, 0.16511255502700806, -0.17912901937961578, -0.03029622510075569, -0.2439986914396286, 0.22410017251968384, -0.03873230889439583, 0.06261144578456879, 0.15032096207141876, 0.0968935489654541, -0.16530315577983856, -0.11505020409822464, 0.3225502371788025, -0.07211422175168991, 0.13431356847286224, 0.01522377785295248, 0.23095226287841797, -0.24569635093212128, -0.228070929646492, 0.30217689275741577, 0.07099172472953796, -0.28141888976097107, 0.07470161467790604, -0.3214257061481476, 0.16967932879924774, 0.17541654407978058, -0.15031474828720093, 0.14896778762340546, -0.261349618434906, -0.017111847177147865, 0.24487239122390747, 0.1728874146938324], [0.24712885916233063, 0.0795680433511734, -0.18701162934303284, -0.0911293625831604, -0.060565851628780365, 0.09536980837583542, -0.12165260314941406, 0.04332398250699043, -0.012571207247674465, -0.1611946076154709, 0.19580377638339996, -0.08717909455299377, 0.2552487850189209, 0.42478761076927185, -0.29343223571777344, 0.09495086967945099, -0.2582207918167114, -0.16846968233585358, 0.2730123698711395, -0.2699741721153259, -0.18006961047649384, 0.2620738744735718, 0.2572305202484131, 0.14474527537822723, 0.1356976479291916, -0.33391696214675903, 0.32430365681648254, 0.06648121029138565, -0.19393682479858398, -0.11309901624917984, -0.01279553584754467, -0.024013390764594078], [-0.0495900921523571, 0.07479269802570343, 0.20850637555122375, -0.27047860622406006, 0.25351396203041077, -0.06347304582595825, -0.21174144744873047, 0.023012395948171616, -0.1426798701286316, 0.10392015427350998, 0.33488792181015015, 0.15342383086681366, 0.1447180062532425, -0.13828976452350616, 0.11416486650705338, -0.23052899539470673, -0.12870654463768005, 0.15690334141254425, 0.005670668091624975, 0.14294525980949402, -0.038961153477430344, -0.028951719403266907, -0.06539135426282883, 0.2159603387117386, -0.21904124319553375, 0.2095010131597519, -0.21814507246017456, 0.17835575342178345, 0.21156273782253265, 0.03180299699306488, -0.03902136906981468, -0.15996482968330383], [0.08960939198732376, -0.14923815429210663, -0.0034581103827804327, 0.12252140790224075, -0.04140233248472214, -0.12080437690019608, 0.027322402223944664, -0.10420269519090652, 0.18863067030906677, 0.1383519321680069, -0.2792965769767761, -0.03793417662382126, 0.36036500334739685, 0.027324030175805092, -0.028533585369586945, -0.22614571452140808, -0.2811491787433624, 0.07541456073522568, 0.08750186860561371, -0.19434784352779388, 0.18443183600902557, 0.08014198392629623, 0.008128926157951355, 0.05539760738611221, 0.029040783643722534, -0.18193529546260834, -0.2448376715183258, -0.22427725791931152, -0.24809344112873077, 0.08574879914522171, 0.21547585725784302, -0.0020655624102801085], [-0.008151344023644924, -0.03028794378042221, -0.1660425066947937, -0.18531401455402374, -0.014723733067512512, 0.2567964792251587, -0.01674593985080719, 0.10009889304637909, -0.11688369512557983, -0.23619532585144043, 0.09627793729305267, 0.023106958717107773, 0.3001320958137512, 0.1466304510831833, 0.015277097001671791, -0.10310214757919312, -0.16168555617332458, -0.05409904196858406, 0.2415422797203064, 0.28096526861190796, -0.14385570585727692, 0.1344159096479416, -0.11028682440519333, -0.010671335272490978, -0.16421718895435333, -0.0001718591374810785, -0.15910689532756805, 0.38292601704597473, -0.21671417355537415, -0.07955849170684814, -0.204610213637352, -0.05795452743768692], [0.06832155585289001, 0.16147054731845856, -0.2626989483833313, 0.21250486373901367, -0.08749248087406158, -0.13283556699752808, -0.09900972247123718, 0.1566704362630844, 0.0800081193447113, -0.09832188487052917, -0.011838763020932674, -0.03833397477865219, 0.010208501480519772, -0.02655128203332424, 0.12377432733774185, 0.17172841727733612, 0.1709974706172943, 0.28778278827667236, 0.10639037191867828, 0.15148621797561646, 0.176136776804924, -0.0023359055630862713, -0.2011340707540512, -0.20861943066120148, -0.11437064409255981, 0.30072247982025146, -0.2490682452917099, -0.2842489778995514, 0.019969508051872253, 0.19976143538951874, -0.10360650718212128, -0.15993677079677582], [-0.07699371129274368, -0.29673877358436584, 0.3014582395553589, 0.2071085423231125, 0.1591227948665619, 0.08958195149898529, 0.12594665586948395, -0.1609855443239212, 0.14380142092704773, -0.2555105686187744, -0.2913445234298706, 0.06752389669418335, -0.037935152649879456, -0.11465653777122498, -0.14505387842655182, -0.3723999261856079, 0.024049967527389526, 0.36691993474960327, 0.03877394273877144, 0.03528991714119911, 0.3399296998977661, 0.1924624741077423, 0.06330599635839462, 0.18046431243419647, -0.17566567659378052, -0.08153091371059418, 0.08577241003513336, 0.2288576364517212, -0.10918528586626053, -0.1024898961186409, -0.1683543175458908, -0.06939902156591415], [0.290745347738266, 0.18674466013908386, 0.17240670323371887, 0.11931293457746506, -0.15989777445793152, -0.15655171871185303, -0.09644394367933273, -0.06017172709107399, 0.018366387113928795, 0.03578253090381622, 0.054376088082790375, -0.12248959392309189, -0.08445581793785095, 0.17568212747573853, -0.2908186614513397, -0.0521848201751709, 0.09966505318880081, -0.3478761613368988, 0.11034411936998367, -0.04611789062619209, -0.22187060117721558, 0.03021390363574028, 0.33629441261291504, 0.10062538087368011, 0.1916491538286209, -0.04904584586620331, 0.008468983694911003, -0.0883573517203331, 0.07915681600570679, -0.28945761919021606, -0.08818084746599197, 0.09674539417028427], [0.0065179127268493176, -0.1374133974313736, -0.17730587720870972, -0.0673731341958046, -0.11176535487174988, -0.10234814882278442, 0.07498778402805328, -0.3356962203979492, -0.1787293404340744, 0.05344896391034126, -0.27287521958351135, -0.14314550161361694, -0.041100386530160904, 0.11323507875204086, -0.19433945417404175, -0.1405341625213623, 0.280117392539978, -0.15770389139652252, 0.0702734962105751, -0.12784963846206665, -0.15437756478786469, 0.0024929060600697994, 0.012407690286636353, 0.09572197496891022, -0.08850117027759552, 0.03714426979422569, 0.1166306883096695, 0.0411636084318161, 0.189538836479187, -0.04036177694797516, -0.14855313301086426, 0.2281147986650467], [-0.1382167637348175, 0.0411197692155838, 0.22748176753520966, 0.002073320560157299, 0.15569733083248138, 0.03878417983651161, -0.0606556199491024, 0.2925436198711395, 0.16370972990989685, 0.2782860994338989, 0.07623805105686188, -0.17737112939357758, -0.3069617748260498, -0.19594158232212067, 0.08840052783489227, 0.031212324276566505, -0.2293463796377182, -0.14937017858028412, 0.13213886320590973, 0.0071965912356972694, 0.08480017632246017, 0.25758442282676697, 0.18539175391197205, 0.22844204306602478, -0.10369516164064407, 0.1397128701210022, -0.2623840570449829, -0.26875582337379456, -0.23012667894363403, -0.11612550169229507, -0.08872173726558685, 0.2709326148033142]], "biases": [0.0033302162773907185, 0.0031067116651684046, 0.00854476448148489, 0.020367305725812912, -0.021444838494062424, 0.010523641481995583, -0.00861932523548603, -0.007718035485595465, 0.012966596521437168, 0.0184311643242836, 0.022026246413588524, 0.022750865668058395, -0.0028908245731145144, -0.040584709495306015, -0.012303472496569157, 0.0297367125749588]}, {"activation": "tanh", "weights": [[0.4115111529827118, -0.5017358064651489, -0.04979804530739784, -0.32448500394821167, -0.09013427048921585, 0.13710813224315643, -0.3166835308074951, -0.37851855158805847, -0.4021869897842407, 0.02800617553293705, 0.22145216166973114, -0.25516393780708313, -0.21631257236003876, -0.18292924761772156, -0.24727362394332886, -0.12236663699150085], [-0.15570999681949615, 0.1102743074297905, -0.1717955619096756, 0.22514407336711884, -0.13846854865550995, -0.22473035752773285, -0.2855598032474518, -0.26587167382240295, -0.266595721244812, 0.26238271594047546, 0.34436720609664917, 0.01981871947646141, -0.13464100658893585, 0.2980654835700989, -0.014484403654932976, -0.04112246632575989]], "biases": [-0.0038281986489892006, -0.002680647186934948]}, {"activation": "tanh", "weights": [[0.3803778290748596, 0.464920312166214], [-0.3643655776977539, -0.6606152057647705], [-0.6191267371177673, 0.3733350336551666], [-0.5392957329750061, -0.25082331895828247], [-0.12353047728538513, -0.5646495819091797], [-0.4800439774990082, -0.24027204513549805], [0.015128950588405132, 0.7088560461997986], [0.45713841915130615, 0.3209133446216583], [0.608877956867218, 0.2760154604911804], [0.22932247817516327, 0.4584422707557678], [-0.42193132638931274, -0.6139205694198608], [-0.6698998212814331, 0.8348075151443481], [-0.3011196255683899, 0.8667029738426208], [-0.4348433315753937, -0.41517382860183716], [0.5415211319923401, 0.6030312180519104], [-0.44206276535987854, 0.05817889794707298]], "biases": [-0.02527955174446106, 0.012972639873623848, 0.01707116700708866, 0.03948139771819115, 0.01590413600206375, 0.009248737245798111, 0.03216613456606865, 0.01808862015604973, 0.047834888100624084, -0.05582932382822037, 0.0029272607062011957, -0.01215938851237297, -0.03090270608663559, -0.023377377539873123, -0.016256574541330338, -0.0033226178493350744]}, {"activation": "linear", "weights": [[-0.5043367147445679, 0.10037346929311752, -0.35528185963630676, 0.08393170684576035, 0.29996180534362793, 0.06357216089963913, -0.588238537311554, -0.29039832949638367, 0.0856814831495285, -0.16300076246261597, 0.2883461117744446, -0.26058849692344666, -0.569771945476532, 0.029027007520198822, 0.0671459510922432, 0.0957874208688736]], "biases": [-0.009719946421682835]}]}