{
  "version": "0.1",
  "num_input_channels": 1,
  "num_output_channels": 1,
  "layers": [
    {
      "activation": "tanh",
      "weights": [
        [
          -0.28441086411476135,
          0.17061643302440643,
          0.10727588087320328,
          -0.0245137307792902,
          0.1039901003241539,
          -0.02503654733300209,
          -0.060675740242004395,
          0.3321775496006012,
          -0.20796889066696167,
          0.06684985756874084,
          0.03941010311245918,
          0.17529813945293427,
          -0.062260136008262634,
          -0.052975695580244064,
          0.02050175704061985,
          0.13856616616249084,
          -0.3743128776550293,
          -0.08902924507856369,
          0.18467958271503448,
          -0.06743314862251282,
          -0.05462004244327545,
          -0.22584547102451324,
          0.02309841476380825,
          0.013471472077071667,
          -0.04291796311736107,
          -0.46019241213798523,
          -0.23274528980255127,
          0.04737679660320282,
          0.0740010067820549,
          -0.436477929353714,
          -0.14054331183433533,
          -0.08434970676898956
        ],
        [
          0.2659439146518707,
          0.2855910360813141,
          -0.2753215730190277,
          -0.11442789435386658,
          0.05355258658528328,
          -0.20765440165996552,
          -0.14163753390312195,
          -0.11363685876131058,
          -0.2603209912776947,
          -0.020908912643790245,
          0.03993025794625282,
          0.36652952432632446,
          0.07274983078241348,
          0.021230988204479218,
          -0.07287339866161346,
          0.15315552055835724,
          -0.14056546986103058,
          -0.15478408336639404,
          0.3230545222759247,
          0.046511441469192505,
          -0.24345189332962036,
          -0.11332808434963226,
          -0.1300170123577118,
          0.1724351942539215,
          -0.15375131368637085,
          -0.0545051135122776,
          -0.12012798339128494,
          0.20337942242622375,
          0.03414808586239815,
          -0.13125315308570862,
          -0.09234583377838135,
          -0.028729302808642387
        ],
        [
          0.1350925713777542,
          0.12216036766767502,
          -0.09359830617904663,
          0.10287314653396606,
          0.033225249499082565,
          0.1568928062915802,
          -0.19914668798446655,
          -0.31244903802871704,
          0.014059506356716156,
          0.23594078421592712,
          -0.29356399178504944,
          0.05376191809773445,
          -0.21982917189598083,
          -0.13752381503582,
          0.16073869168758392,
          0.3336617946624756,
          -0.17712238430976868,
          -0.09503132104873657,
          -0.16080185770988464,
          -0.2791765034198761,
          -0.16200314462184906,
          -0.08966939151287079,
          0.21147161722183228,
          0.13700169324874878,
          0.1996556520462036,
          0.2603009343147278,
          0.09589684009552002,
          -0.39067918062210083,
          -0.2025601863861084,
          0.25132855772972107,
          0.06148206815123558,
          -0.03656737506389618
        ],
        [
          -0.18584059178829193,
          0.03973838686943054,
          -0.14471746981143951,
          -0.13674230873584747,
          -0.012697499245405197,
          0.38225045800209045,
          -0.01194550096988678,
          0.14135953783988953,
          0.15438507497310638,
          -0.25400304794311523,
          0.20652812719345093,
          0.17802776396274567,
          -0.16520600020885468,
          0.2496533989906311,
          -0.2591501772403717,
          -0.028235414996743202,
          0.21752452850341797,
          -0.027179062366485596,
          -0.09920645505189896,
          0.09832366555929184,
          0.11697348207235336,
          -0.04357194900512695,
          -0.1378333568572998,
          -0.1841537058353424,
          -0.0615004301071167,
          0.1781359612941742,
          0.0011177753331139684,
          -0.32587581872940063,
          -0.3323255479335785,
          0.07513315975666046,
          0.08856146782636642,
          -0.008703982457518578
        ],
        [
          0.3259577453136444,
          -0.20152515172958374,
          0.06748107075691223,
          0.2073824107646942,
          -0.03754022344946861,
          0.16591404378414154,
          -0.004421272315084934,
          -0.4020155966281891,
          0.12859582901000977,
          -0.2962394952774048,
          -0.012426095083355904,
          0.21117722988128662,
          -0.31452810764312744,
          0.12588979303836823,
          0.24043962359428406,
          0.13822990655899048,
          -0.12875297665596008,
          0.24772603809833527,
          0.19471396505832672,
          -0.34266042709350586,
          0.14317578077316284,
          0.11213212460279465,
          -0.3211532235145569,
          -0.21483832597732544,
          -0.19839666783809662,
          0.16108517348766327,
          -0.046576615422964096,
          0.06777430325746536,
          0.22791700065135956,
          0.0590609535574913,
          0.008291826583445072,
          -0.062337055802345276
        ],
        [
          0.2660878896713257,
          -0.0041595688089728355,
          -0.006143616046756506,
          -0.4232392907142639,
          0.0803242027759552,
          0.19140279293060303,
          -0.06218048185110092,
          -0.16109611093997955,
          0.14782850444316864,
          -0.30630648136138916,
          0.0874001532793045,
          -0.0014946481678634882,
          -0.049632444977760315,
          0.18965311348438263,
          -0.11071791499853134,
          -0.007110205013304949,
          -0.000607288908213377,
          -0.19991347193717957,
          0.07004769891500473,
          -0.06122018024325371,
          -0.052766118198633194,
          0.04510949179530144,
          -0.09640278667211533,
          0.07896678894758224,
          0.09040234982967377,
          0.05312075838446617,
          0.004772914107888937,
          -0.023416396230459213,
          -0.1796117126941681,
          0.29535016417503357,
          0.12433222681283951,
          0.24491243064403534
        ],
        [
          -0.2713817059993744,
          -0.19115762412548065,
          0.1964874565601349,
          0.24832114577293396,
          0.009165887720882893,
          0.13172969222068787,
          0.16894368827342987,
          0.16026251018047333,
          0.20640796422958374,
          -0.22247397899627686,
          -0.023448292165994644,
          -0.03934505581855774,
          0.11403733491897583,
          -0.08432776480913162,
          0.11704255640506744,
          0.18297401070594788,
          0.018880778923630714,
          -0.04399016872048378,
          0.07308123260736465,
          0.06714905798435211,
          0.2803865969181061,
          -0.047486383467912674,
          -0.2617410719394684,
          0.31221941113471985,
          0.23616106808185577,
          -0.1304561197757721,
          -0.15055464208126068,
          -0.04577868431806564,
          0.1170869842171669,
          0.021369988098740578,
          0.024086760357022285,
          0.04532958194613457
        ],
        [
          -0.2690425515174866,
          -0.14920330047607422,
          0.3269943594932556,
          -0.19951964914798737,
          0.30011218786239624,
          -0.3005360960960388,
          -0.30969536304473877,
          0.30594202876091003,
          0.18652653694152832,
          0.1264045238494873,
          0.14288733899593353,
          -0.13454173505306244,
          0.007991466671228409,
          0.027346765622496605,
          0.08589893579483032,
          0.02588772214949131,
          -0.09954094886779785,
          -0.3782646954059601,
          0.104861781001091,
          -0.3252374827861786,
          0.17783813178539276,
          0.2762340009212494,
          0.17587627470493317,
          -0.06915328651666641,
          -0.3457762897014618,
          -0.1569877713918686,
          -0.019108500331640244,
          0.06667748838663101,
          0.1200905293226242,
          0.04489549621939659,
          -0.06469372659921646,
          -0.09873215109109879
        ],
        [
          0.13284824788570404,
          0.02577272243797779,
          0.1870070993900299,
          -0.257392019033432,
          0.2038036435842514,
          0.08960151672363281,
          0.09323464334011078,
          -0.08783771097660065,
          0.2650661766529083,
          -0.178659588098526,
          0.19642680883407593,
          -0.007932919077575207,
          -0.22528095543384552,
          -0.2024795562028885,
          -0.016904914751648903,
          -0.2869902551174164,
          0.27560898661613464,
          -0.01511367503553629,
          -0.20267300307750702,
          0.13660778105258942,
          -0.17187225818634033,
          0.07712195813655853,
          0.2213326096534729,
          0.05030147731304169,
          0.18816441297531128,
          -0.11228328943252563,
          -0.28161177039146423,
          0.1675310730934143,
          -0.18880130350589752,
          -0.014214975759387016,
          -0.10367117822170258,
          -0.16740664839744568
        ],
        [
          0.19559305906295776,
          0.18816468119621277,
          0.21055838465690613,
          -0.22696027159690857,
          0.03859968110918999,
          -0.18640781939029694,
          0.2935187518596649,
          0.2054511457681656,
          -0.34119436144828796,
          0.1322605162858963,
          -0.02832013927400112,
          -0.23854854702949524,
          0.2700112760066986,
          0.13025206327438354,
          -0.15323401987552643,
          0.1478460431098938,
          -0.14352098107337952,
          -0.12907055020332336,
          0.1240941658616066,
          0.034514397382736206,
          -0.2137870192527771,
          -0.13515639305114746,
          -0.24416674673557281,
          -0.015213175676763058,
          0.2779728174209595,
          -0.14535310864448547,
          -0.07734595984220505,
          -0.18516772985458374,
          -0.20938679575920105,
          0.3185883164405823,
          -0.11750156432390213,
          0.3513621389865875
        ],
        [
          -0.20903058350086212,
          -0.13851481676101685,
          -0.0558154433965683,
          0.2975080609321594,
          -0.10751661658287048,
          0.2951282560825348,
          0.18093957006931305,
          0.31866538524627686,
          -0.3504229187965393,
          -0.1857822835445404,
          -0.22350674867630005,
          0.024732882156968117,
          0.24695049226284027,
          0.048526182770729065,
          0.34470316767692566,
          0.10927825421094894,
          0.0644940435886383,
          0.015675527974963188,
          -0.09566918015480042,
          -0.28400447964668274,
          0.2230493277311325,
          -0.3274668753147125,
          0.2549819052219391,
          0.005195267964154482,
          -0.16049347817897797,
          0.012377669103443623,
          -0.06518044322729111,
          -0.31100139021873474,
          0.2832114100456238,
          0.20702999830245972,
          -0.0072214496321976185,
          0.0396120660007
        ],
        [
          -0.29413431882858276,
          -0.08485526591539383,
          0.1962515115737915,
          0.2921961545944214,
          0.015162758529186249,
          -0.1426921933889389,
          0.28703728318214417,
          0.21384592354297638,
          -0.024557484313845634,
          0.04353342577815056,
          -0.11519498378038406,
          -0.12105207145214081,
          -0.23075848817825317,
          0.2501949071884155,
          -0.02102437987923622,
          0.16564416885375977,
          0.1763659566640854,
          0.05932518467307091,
          -0.10701195895671844,
          0.38991478085517883,
          -0.32758429646492004,
          0.2734605669975281,
          -0.08953412622213364,
          -0.3438204824924469,
          0.2864297032356262,
          -0.02261604554951191,
          0.0298013873398304,
          -0.1817091405391693,
          -0.18922868371009827,
          -0.05049774423241615,
          0.13112632930278778,
          0.18337181210517883
        ],
        [
          0.18971143662929535,
          -0.2460317611694336,
          -0.26052725315093994,
          -0.05485612526535988,
          0.2190321534872055,
          0.1252947747707367,
          -0.15549743175506592,
          -0.32757994532585144,
          0.3417286276817322,
          0.15055543184280396,
          0.08428408205509186,
          -0.15726740658283234,
          -0.19219085574150085,
          0.09662508219480515,
          0.11857137084007263,
          -0.014461004175245762,
          -0.2183537632226944,
          0.1703978329896927,
          -0.29693591594696045,
          0.08685201406478882,
          -0.1207960993051529,
          0.09888987243175507,
          0.2196873128414154,
          -0.293718159198761,
          -0.3782239258289337,
          0.1093723401427269,
          -0.04977938160300255,
          0.18431949615478516,
          0.20194177329540253,
          -0.260381281375885,
          -0.039400819689035416,
          0.19694426655769348
        ],
        [
          -0.30687323212623596,
          0.048212841153144836,
          0.276145875453949,
          0.2239326536655426,
          -0.2247234284877777,
          -0.3238530158996582,
          0.16993455588817596,
          0.18589946627616882,
          -0.17365509271621704,
          -0.11780568212270737,
          -0.1065995916724205,
          -0.12684327363967896,
          0.05742061883211136,
          -0.2902657091617584,
          0.26900535821914673,
          0.11262907087802887,
          -0.28136536478996277,
          0.24782130122184753,
          0.27777454257011414,
          -0.03953716903924942,
          0.21947963535785675,
          -0.010676264762878418,
          -0.07603184133768082,
          -0.12199044972658157,
          0.22874020040035248,
          -0.0664149671792984,
          -0.02410121262073517,
          -0.36368682980537415,
          0.09492043405771255,
          0.2448449432849884,
          -0.1410290151834488,
          -0.1836557388305664
        ],
        [
          0.14274030923843384,
          -0.30519288778305054,
          -0.021469000726938248,
          0.06745326519012451,
          0.033168304711580276,
          -0.13370278477668762,
          0.04312392324209213,
          -0.14954569935798645,
          -0.30050480365753174,
          0.051546916365623474,
          0.07426147162914276,
          0.07467209547758102,
          -0.14171059429645538,
          0.09469688683748245,
          0.03044496849179268,
          0.3081578016281128,
          -0.029305389150977135,
          0.20147474110126495,
          0.13786004483699799,
          -0.3674736022949219,
          0.26432177424430847,
          -0.06668297946453094,
          -0.36064037680625916,
          -0.18221411108970642,
          -0.274089515209198,
          0.3664095997810364,
          -0.19437000155448914,
          0.03364184498786926,
          0.3249404728412628,
          0.34200435876846313,
          -0.19406917691230774,
          0.08569425344467163
        ],
        [
          -0.21427857875823975,
          0.21016274392604828,
          -0.029879270121455193,
          -0.27875465154647827,
          0.33786919713020325,
          -0.22003254294395447,
          -0.290432870388031,
          0.08029640465974808,
          0.2765427529811859,
          0.2459881603717804,
          0.21338583528995514,
          0.011661885306239128,
          -0.041079021990299225,
          -0.3318989872932434,
          0.013931583613157272,
          0.271526962518692,
          -0.1406375914812088,
          -0.20737974345684052,
          -0.00606654305011034,
          0.1170012429356575,
          0.04258346185088158,
          0.05067138746380806,
          0.2951788604259491,
          0.23212455213069916,
          0.09676946699619293,
          0.1826958954334259,
          -0.17905408143997192,
          -0.26909688115119934,
          -0.2181091606616974,
          0.2735467553138733,
          -0.17472605407238007,
          -0.14713263511657715
        ]
      ],
      "biases": [
        0.00015450449427589774,
        0.001550204586237669,
        0.005137437488883734,
        -0.008352220989763737,
        0.010598300024867058,
        -0.026371046900749207,
        0.006877822335809469,
        0.028172925114631653,
        0.01224423572421074,
        -0.057501159608364105,
        0.0048590111546218395,
        -0.0003974757855758071,
        0.023997798562049866,
        -0.015928978100419044,
        -0.008471176959574223,
        0.036631226539611816
      ]
    },
    {
      "activation": "tanh",
      "weights": [
        [
          -0.014794468879699707,
          -0.0974612906575203,
          -0.11184452474117279,
          0.05670418590307236,
          0.4070875644683838,
          -0.3425184488296509,
          -0.04808542877435684,
          -0.01245942059904337,
          -0.015371098183095455,
          0.2874560058116913,
          0.07899834215641022,
          -0.04017450660467148,
          -0.07258778065443039,
          -0.22634804248809814,
          -0.20863766968250275,
          0.21625769138336182
        ],
        [
          -0.18887360394001007,
          0.41365915536880493,
          0.3721350431442261,
          0.4256128668785095,
          -0.31820568442344666,
          -0.2614453136920929,
          0.31745535135269165,
          0.2985541820526123,
          0.2900552451610565,
          0.12243317812681198,
          -0.13181260228157043,
          -0.1672690361738205,
          0.30628836154937744,
          0.33781546354293823,
          0.05097990110516548,
          -0.49652257561683655
        ]
      ],
      "biases": [
        -0.006190492771565914,
        0.005465616472065449
      ]
    },
    {
      "activation": "tanh",
      "weights": [
        [
          0.6525610685348511,
          -0.46387800574302673
        ],
        [
          -0.8846403360366821,
          -0.0912243127822876
        ],
        [
          -0.5633593797683716,
          0.6359182596206665
        ],
        [
          -0.14898158609867096,
          0.36007925868034363
        ],
        [
          -0.5778820514678955,
          0.19013941287994385
        ],
        [
          0.307409405708313,
          0.703809916973114
        ],
        [
          -0.6878781318664551,
          0.2875802218914032
        ],
        [
          -0.2458639144897461,
          -0.5241237878799438
        ],
        [
          -0.02269725687801838,
          0.7177931070327759
        ],
        [
          0.7594883441925049,
          -0.22316581010818481
        ],
        [
          -0.2674497365951538,
          -0.39255258440971375
        ],
        [
          0.5358000993728638,
          0.8312269449234009
        ],
        [
          -0.4476469159126282,
          0.2947300970554352
        ],
        [
          -0.14041128754615784,
          0.5187339186668396
        ],
        [
          0.4894181191921234,
          0.4925687611103058
        ],
        [
          0.5122841000556946,
          -0.2757256031036377
        ]
      ],
      "biases": [
        0.00984505470842123,
        0.009767292998731136,
        -0.013792190700769424,
        -0.010428591631352901,
        0.013075374998152256,
        -0.0036568508949130774,
        -0.04205873981118202,
        0.009649127721786499,
        0.05261196941137314,
        -0.010899157263338566,
        0.01760481670498848,
        -0.0030275338795036077,
        0.0066133723594248295,
        0.0009526837966404855,
        -0.01136732567101717,
        0.007633342873305082
      ]
    },
    {
      "activation": "linear",
      "weights": [
        [
          -0.02255563624203205,
          -0.030955789610743523,
          0.04921110346913338,
          0.18145063519477844,
          0.24769073724746704,
          -0.650982141494751,
          -0.24463754892349243,
          0.14543716609477997,
          -0.38912689685821533,
          0.2892898917198181,
          -0.022335266694426537,
          -0.6088089346885681,
          0.22432199120521545,
          -0.15252280235290527,
          -0.7203707098960876,
          0.2852783501148224
        ]
      ],
      "biases": [
        0.001175431883893907
      ]
    }
  ]
}