{"version": "0.1", "num_input_channels": 1, "num_output_channels": 3, "layers": [{"activation": "relu", "weights": [[-0.13998951017856598, -0.12147927284240723, -0.08867727965116501, 0.03220498934388161, -0.009825177490711212, -0.07871487736701965, 0.042042698711156845, 0.17361809313297272, -0.16047294437885284, -0.011709311045706272, -0.029659267514944077, 0.056344836950302124, 0.04276830703020096, -0.14404729008674622, 0.124130979180336, -0.047046415507793427, 0.07316364347934723, 0.1688023954629898, -0.04818526655435562, -0.08422638475894928, 0.008925463072955608, 0.10867154598236084, 0.1204976961016655, -0.08035830408334732, 0.16441214084625244, 0.11678902059793472, -0.09725811332464218, -0.11605723202228546, -0.18257303535938263, -0.014975226484239101, 0.07320897281169891, 0.06793151795864105, 0.013006297871470451, 0.04493824020028114, 0.09799667447805405, -0.06130975857377052, -0.06284847855567932, 0.14550720155239105, -0.03496679663658142, 0.045265063643455505, 0.063556969165802, 0.10943519324064255, -0.009005825966596603, 0.10399195551872253, 0.13096210360527039, 0.023597972467541695, -0.16695180535316467, 0.10034269094467163, -0.15706852078437805, -0.13057394325733185, 0.041751615703105927, -0.08308704942464828, 0.17656508088111877, -0.10894204676151276, 0.14003171026706696, -0.11904837936162949, -0.07792755961418152, 0.0043107992969453335, -0.08041249960660934, -0.06969405710697174, 0.17640197277069092, 0.007158417254686356, 0.04327211529016495, -0.19818736612796783, -0.16544555127620697, -0.016017023473978043, 0.05217429995536804, 0.11186634749174118, 0.021247390657663345, 0.035126980394124985, -0.05449577793478966, -0.05071394890546799, 0.03135992959141731, 0.09398952126502991, 0.09092877060174942, 0.12696024775505066, -0.13902945816516876, -0.11427564918994904, 0.0732148066163063, -0.025593874976038933, -0.054932933300733566, 0.07313929498195648, -0.11331231892108917, -0.08277886360883713, -0.13089434802532196, -0.0037156431935727596, 0.017531242221593857, 0.0007948648417368531, 0.0964687392115593, -0.06293787807226181, -0.07075697183609009, 0.06760302931070328, -0.05853521078824997, 0.10398893058300018, 0.10748273134231567, -0.05673769488930702, -0.09625905007123947, 0.08723336458206177, -0.15778106451034546, -0.020643197000026703], [0.13096368312835693, -0.04211226478219032, 0.008118216879665852, 0.020504562184214592, 0.09733091294765472, 0.06742718815803528, -0.1529577672481537, -0.01767987385392189, 0.1421135812997818, 0.13227128982543945, -0.08789961785078049, 0.023407263681292534, -0.012343593873083591, -0.11966760456562042, 0.2033434808254242, -0.025348499417304993, 0.01340442430227995, -0.06283719837665558, 0.17985333502292633, -0.0038996702060103416, 0.11281939595937729, 0.029521580785512924, -0.15035472810268402, -0.08311134576797485, -0.04117812588810921, 0.13647131621837616, 0.14253070950508118, -0.019534777849912643, 0.07635020464658737, -0.1754145473241806, 0.14926105737686157, 0.17185622453689575, -0.13849453628063202, -0.0004583898698911071, -0.002880160929635167, 0.10153426975011826, 0.0749964565038681, -0.1364838182926178, -0.012227505445480347, 0.14772117137908936, 0.0947449654340744, -0.12849825620651245, -0.07200854271650314, 0.06316006183624268, 0.15210667252540588, -0.04637347161769867, 0.15156526863574982, 0.11254940927028656, -0.1029198169708252, 0.023343345150351524, -0.03579900786280632, -0.04620358347892761, 0.07339171320199966, 0.07581274211406708, -0.004544713068753481, -0.19667816162109375, 0.15854941308498383, 0.08728840202093124, 0.08839133381843567, 0.17590999603271484, 0.1165706142783165, -0.10161252319812775, -0.08532831817865372, -0.007403060793876648, -0.17739857733249664, -0.09925290942192078, 0.18135666847229004, 0.036177895963191986, 0.1806250363588333, 0.13307365775108337, 0.15223704278469086, -0.09740922600030899, -0.17139370739459991, 0.0025605231057852507, -0.03988496586680412, 0.1666174679994583, -0.134088933467865, 0.09468304365873337, 0.04154520109295845, -0.011921623721718788, -0.14406293630599976, -0.04542700946331024, 0.19175153970718384, -0.05040649697184563, 0.15166158974170685, -0.09675320982933044, 0.009456885047256947, 0.040840718895196915, -0.005407655145972967, -0.14211687445640564, 0.11557207256555557, -0.1728714257478714, -0.016779737547039986, 0.1534574180841446, 0.11721348762512207, -0.1472855657339096, 0.02514795958995819, 0.16367852687835693, -0.05190040543675423, -0.05362866446375847], [-0.17508088052272797, 0.10052222013473511, -0.14627255499362946, 0.08887047320604324, -0.15576080977916718, 0.011830835603177547, 0.005918146576732397, -0.13215984404087067, -0.00016786382184363902, 0.15771843492984772, -0.13159425556659698, 0.030187370255589485, -0.17526958882808685, -0.10503242909908295, 0.13154642283916473, -0.04052819684147835, -0.09833065420389175, 0.13468122482299805, 0.07305245101451874, 0.12577036023139954, -0.017633242532610893, -0.0124808419495821, -0.0528080128133297, -0.10433892160654068, 0.0304526649415493, -0.05211629718542099, 0.1420605182647705, 0.15620578825473785, -0.13950635492801666, 0.13930602371692657, -0.09358186274766922, -0.09487356245517731, -0.08617336302995682, -0.0065849218517541885, 0.1931755542755127, -0.11327103525400162, -0.080266572535038, 0.056732844561338425, -0.06485398858785629, 0.08413909375667572, -0.19017961621284485, -0.1732519119977951, 0.16428740322589874, -0.05615322291851044, -0.014106006361544132, -0.012029225938022137, 0.12551790475845337, -0.0851902887225151, 0.09762391448020935, -0.11823287606239319, 0.11574199795722961, -0.13188156485557556, 0.202627494931221, -0.11075969785451889, -0.15263107419013977, 0.02171819843351841, 0.1149023175239563, 0.05284446105360985, 0.0877280905842781, 0.15408210456371307, 0.07636422663927078, 0.04042796418070793, -0.1518009752035141, 0.060089342296123505, -0.08906243741512299, -0.04450429975986481, 0.09657874703407288, -0.09062401205301285, 0.06979513168334961, 0.12583209574222565, 0.08561330288648605, -0.04658827930688858, 0.07201668620109558, -0.0946178287267685, 0.07815437018871307, -0.004638293758034706, -0.12286558747291565, -0.13128814101219177, 0.1613878756761551, -0.027722952887415886, -0.15255607664585114, -0.1797928512096405, 0.08282271027565002, -0.021214645355939865, 0.1056911051273346, 0.20642349123954773, 0.052734773606061935, -0.17920008301734924, -0.14030596613883972, 0.0020005907863378525, -0.11013595759868622, 0.05154218152165413, 0.011385153979063034, 0.17646700143814087, -0.042629655450582504, 0.0805061087012291, 0.023426860570907593, 0.03333456069231033, 0.035479363054037094, -0.08836004883050919], [-0.07840554416179657, 0.07360468804836273, 0.03696933388710022, 0.0792524665594101, -0.14090090990066528, 0.03560086339712143, 0.06968628615140915, -0.12221452593803406, -0.11259858310222626, 0.1410824954509735, 0.10990903526544571, 0.02142561599612236, -0.07734401524066925, 0.11146481335163116, 0.17919042706489563, 0.14469009637832642, 0.16730594635009766, -0.07759246975183487, -0.06887634098529816, -0.03451806679368019, -0.060642268508672714, 0.11057521402835846, 0.11293669044971466, -0.016692711040377617, 0.10871585458517075, -0.12143587321043015, 0.19630783796310425, 0.16117540001869202, 0.1286613792181015, 0.008573026396334171, -0.0653974637389183, 0.020006638020277023, 0.12129070609807968, -0.038851410150527954, 0.1207815632224083, 0.1293029636144638, -0.1352209895849228, 0.1100563257932663, 0.11323977261781693, -0.08891355991363525, -0.18206627666950226, -0.16305473446846008, -0.01947738416492939, 0.12149525433778763, 0.16482926905155182, 0.03525340184569359, 0.20125406980514526, -0.16267554461956024, 0.0935494527220726, -0.1751691848039627, -0.012121306732296944, -0.1058293953537941, -0.08257362991571426, 0.16022686660289764, -0.101868636906147, -0.17024804651737213, -0.18924108147621155, -0.1507928967475891, -0.06575215607881546, 0.08140571415424347, 0.04584065452218056, 0.17257282137870789, -0.0023832523729652166, -0.13604262471199036, -0.01821441389620304, 0.09416303038597107, 0.15200866758823395, 0.05108145251870155, 0.006485774181783199, -0.020610662177205086, -0.18962007761001587, 0.10060372203588486, 0.037672750651836395, 0.04679754748940468, -0.09883786737918854, -0.11993230134248734, -0.010901565663516521, -0.003801282960921526, 0.08507286757230759, 0.09956569224596024, 0.12338837236166, 0.1628572940826416, 0.18252283334732056, -0.10215318202972412, -0.138311505317688, -0.15295648574829102, -0.026671869680285454, -0.08246424794197083, -0.0706975981593132, 0.13638095557689667, 0.07140323519706726, 0.054920583963394165, -0.09421376138925552, 0.05409158393740654, 0.03441310301423073, -0.02911083772778511, -0.03344648703932762, -0.08144068717956543, -0.07988682389259338, 0.10207968950271606], [0.13158608973026276, 0.028477683663368225, -0.16072465479373932, -0.05700056254863739, -0.06195809692144394, -0.1055518388748169, 0.08203800767660141, 0.0666058138012886, 0.048425979912281036, 0.15947209298610687, -0.0927438959479332, 0.06927996873855591, -0.016606349498033524, -0.10071174055337906, -0.07394559681415558, -0.10674440115690231, -0.03996041789650917, -0.04939765855669975, 0.16951040923595428, 0.1702941656112671, 0.134407177567482, -0.01164909079670906, -0.0403316393494606, 0.10031654685735703, 0.166934996843338, 0.08790383487939835, 0.15138526260852814, 0.10883636027574539, -0.07853375375270844, 0.16139622032642365, 0.0063806744292378426, -0.04689227044582367, 0.025240924209356308, 0.13878598809242249, -0.021860294044017792, 0.018996624276041985, -0.08641566336154938, 0.053281452506780624, -0.17512144148349762, 0.07102233916521072, 0.011284478940069675, 0.1909479796886444, 0.03914518654346466, 0.05190282687544823, -0.15785008668899536, -0.10913114994764328, -0.09749206155538559, -0.14532269537448883, 0.05987498536705971, 0.0006395726813934743, -0.09663014858961105, 0.033730603754520416, 0.18356375396251678, -0.09022068977355957, -0.16842572391033173, -0.021955052390694618, 0.08930827677249908, -0.061000313609838486, 0.08593647927045822, 0.07264252752065659, -0.13032957911491394, -0.11900798976421356, 0.06544211506843567, 0.09963666647672653, -0.17429763078689575, -0.05620330944657326, 0.10405328869819641, -0.09786460548639297, -0.044459499418735504, -0.14133915305137634, -0.0731387510895729, 0.0753093957901001, -0.131623312830925, 0.02077697031199932, 0.17282402515411377, -0.12541355192661285, 0.013575817458331585, -0.03432249277830124, -0.08278065174818039, -0.12119933217763901, 0.13355247676372528, -0.16517187654972076, 0.06316876411437988, -0.03503836691379547, -0.1455950289964676, -0.1520213931798935, -0.1505241096019745, -0.15914103388786316, -0.11588980257511139, 0.01872074417769909, 0.14410541951656342, -0.031020302325487137, 0.10750427842140198, -0.04920049011707306, 0.1255299299955368, -0.15881679952144623, 0.15041659772396088, -0.022039905190467834, 0.08163554221391678, -0.0861925557255745], [-0.11980628222227097, -0.03308199718594551, -0.1669556349515915, 0.06845176219940186, 0.09086714684963226, -0.16156312823295593, -0.14156688749790192, -0.11001843959093094, 0.0566692091524601, -0.048044949769973755, -0.04044937714934349, -0.02519805170595646, 0.04467213153839111, -0.09237845987081528, -0.10991403460502625, -0.04278760030865669, -0.044643186032772064, 0.0756782814860344, -0.0044825877994298935, 0.11944784969091415, 0.07649111747741699, 0.09961626678705215, -0.0448501817882061, -0.09568528085947037, -0.0646330863237381, -0.1418260782957077, 0.060189735144376755, -0.14445868134498596, 0.0762331560254097, 0.18825663626194, 0.14023441076278687, 0.08672872185707092, 0.014231068082153797, 0.1697099655866623, 0.20783217251300812, 0.10552827268838882, -0.040668632835149765, -0.16024649143218994, 0.10340581834316254, -0.06757848709821701, -0.012672449462115765, 0.10526303201913834, -0.06629956513643265, 0.010686411522328854, 0.04525145888328552, -0.05518580600619316, -0.023693103343248367, -0.14411672949790955, 0.21190251410007477, -0.0180019810795784, -0.0980522632598877, 0.08964850753545761, -0.021792618557810783, -0.02417929098010063, -0.04560919106006622, 0.03538963571190834, 0.0023787596728652716, 0.1474270224571228, 0.0876716822385788, 0.014845134690403938, 0.07580654323101044, 0.06537431478500366, 0.09385274350643158, 0.10714300721883774, -0.09938770532608032, 0.017049113288521767, -0.08066274970769882, -0.07088174670934677, 0.19154636561870575, -0.029344119131565094, -0.07710105925798416, 0.11060567945241928, 0.007995610125362873, 0.03495897725224495, 0.13181953132152557, 0.10256868600845337, -0.037189412862062454, 0.16302786767482758, -0.11314431577920914, 0.04233420640230179, 0.0464010089635849, -0.08558893948793411, 0.13465040922164917, -0.14371703565120697, -0.08920587599277496, -0.0391857847571373, 0.14364880323410034, 0.08665455877780914, 0.09263429790735245, 0.06738139688968658, 0.03646213561296463, 0.14941130578517914, -0.021200397983193398, -0.06437001377344131, 0.024153906852006912, 0.04308851808309555, -0.06760165840387344, -0.0196931604295969, 0.044964130967855453, -0.09711904078722], [0.05177608132362366, -0.11127616465091705, -0.1275722086429596, 0.10367166996002197, 0.1281055510044098, -0.02703087590634823, -0.15553352236747742, -0.15849584341049194, 0.130348801612854, 0.0076768365688622, 0.006146685220301151, 0.1614745557308197, 0.034974806010723114, -0.11224471777677536, -0.16143369674682617, 0.08088663220405579, -0.05973511189222336, 0.06717372685670853, 0.0922182947397232, -0.1612887680530548, -0.057798802852630615, 0.14037548005580902, 0.1223549023270607, -0.05975828692317009, 0.00979185476899147, -0.08483898639678955, 0.07059542834758759, -0.07280828803777695, 0.05444946885108948, 0.04283733293414116, -0.14759333431720734, 0.0418543741106987, -0.03357679769396782, -0.10100018233060837, 0.17530716955661774, 0.07222405076026917, -0.07966258376836777, -0.1027771458029747, 0.09309675544500351, 0.07878667861223221, -0.11841361969709396, 0.16144418716430664, -0.053751807659864426, 0.03670375794172287, -0.13658955693244934, 0.08616457134485245, -0.09389884769916534, -0.004767286125570536, 0.10871439427137375, -0.13445118069648743, -0.0906989648938179, 0.0205297339707613, -0.15190526843070984, 0.026574427261948586, 0.031630903482437134, 0.14279164373874664, -0.16922488808631897, -0.12465649098157883, 0.010975033044815063, -0.06508789211511612, -0.15026983618736267, -0.16928036510944366, 0.08107399940490723, 0.05229024216532707, 0.12303142994642258, 0.11892727762460709, -0.14604897797107697, 0.1488998681306839, 0.09696414321660995, -0.044510532170534134, -0.14484773576259613, 0.08640943467617035, 0.08959052711725235, 0.02307036891579628, 0.12074950337409973, -0.09948521107435226, 0.13355466723442078, -0.1500701755285263, 0.1370088756084442, -0.07421237230300903, 0.032082147896289825, 0.14105190336704254, 0.048582904040813446, 0.11243147403001785, -0.0486176423728466, -0.08750378340482712, -0.17751234769821167, -0.1718207746744156, -0.006860681343823671, 0.14924944937229156, 0.09194046258926392, 0.09948723763227463, 0.15489715337753296, -0.1964702606201172, -0.21958154439926147, -0.02725815773010254, 0.13269101083278656, 0.06392072141170502, 0.030165676027536392, -0.09794625639915466], [-0.11564319580793381, 0.07202555239200592, 0.13525240123271942, -0.01711430959403515, 0.1280420869588852, 0.048720620572566986, -0.10620307177305222, 0.12311477214097977, 0.013074882328510284, 0.09499377757310867, 0.12005641311407089, -0.07894203066825867, -0.1066354289650917, 0.0991295650601387, -0.04079480469226837, -0.11506782472133636, 0.07257440686225891, 0.07205762714147568, -0.050675150007009506, -0.037289053201675415, -0.07111424207687378, 0.1398226022720337, 0.15269438922405243, 0.2041378766298294, -0.13433979451656342, -0.0968749076128006, -0.0009996554581448436, -0.045267604291439056, -0.13981428742408752, -0.13153599202632904, -0.02459910325706005, 0.15044750273227692, -0.00980715174227953, 0.010897966101765633, 0.08772514760494232, 0.16340063512325287, -0.14533449709415436, 0.004223569296300411, -0.10827822238206863, -0.07456548511981964, 0.08429025858640671, 0.05245576798915863, -0.11455991864204407, 0.11238020658493042, 0.000813275866676122, 0.12508687376976013, 0.14695852994918823, -0.03891596570611, 0.20138587057590485, 0.00021280701912473887, -0.04442906007170677, -0.16948814690113068, -0.13843582570552826, -0.026266973465681076, 0.11826126277446747, 0.20143553614616394, -0.1414482742547989, -0.17243275046348572, 0.10193485766649246, -0.15915609896183014, 0.036967772990465164, -0.09683042019605637, 0.0684112086892128, -0.18240033090114594, -0.15444329380989075, -0.10799672454595566, 0.11937970668077469, 0.1633395552635193, 0.12186037003993988, -0.10605507344007492, -0.06229197233915329, 0.13844777643680573, 0.1551840752363205, -0.09721523523330688, 0.06275687366724014, 0.16167861223220825, 0.003968034405261278, -0.09336095303297043, -0.014438359066843987, -0.09115870296955109, 0.07060603052377701, 0.09866493940353394, -0.08515409380197525, 0.0765795111656189, -0.17676173150539398, 0.01688304916024208, 0.11090928316116333, 0.1347324550151825, 0.012974984012544155, -0.06151874363422394, 0.13754616677761078, 0.11618281900882721, -0.007478635758161545, -0.021207964047789574, -0.08512790501117706, -0.008517025038599968, -0.01173789706081152, -0.04588687792420387, -0.02274046465754509, -0.06272154301404953], [-0.06220926716923714, 0.10624073445796967, 0.12928704917430878, 0.10908907651901245, 0.18071022629737854, 0.013964359648525715, 0.04483881965279579, -0.1352156698703766, 0.012920691631734371, -0.12387677282094955, -0.18778537213802338, 0.004860241897404194, -0.06053483858704567, 0.06055368110537529, 0.025858303532004356, -0.10708030313253403, 0.01410260796546936, -0.004733379930257797, 0.16429321467876434, 0.03513689711689949, 0.15167036652565002, -0.1399611532688141, -0.12656956911087036, 0.06990775465965271, -0.11811252683401108, 0.027585865929722786, -0.052462320774793625, 0.08903512358665466, -0.19073496758937836, 0.09769833087921143, 0.049747731536626816, -0.06320779025554657, 0.014502668753266335, 0.15040110051631927, 0.09923046082258224, 0.15898509323596954, -0.0035669254139065742, -0.04923997074365616, 0.011919721029698849, 0.13799481093883514, -0.06738884001970291, -0.052412014454603195, -0.024727316573262215, 0.057282861322164536, 0.01615464873611927, 0.026343267410993576, -0.026230575516819954, -0.15599218010902405, 0.1146959587931633, -0.18723732233047485, -0.05283835157752037, 0.135665625333786, -0.14258378744125366, -0.09629572182893753, 0.053107839077711105, 0.11334819346666336, 0.07469020783901215, -0.11521775275468826, -0.04870323836803436, 0.06306737661361694, -0.05919090658426285, -0.05035189911723137, -0.16535493731498718, -0.0010512486333027482, 0.1347268670797348, -0.11271961778402328, 0.026963908225297928, -0.17262867093086243, -0.14309942722320557, -0.12335871905088425, -0.1394386887550354, -0.05132519081234932, -0.1654878407716751, 0.05483120679855347, -0.0006226544501259923, 0.12300372123718262, 0.030768319964408875, 0.0800432339310646, -0.035172391682863235, 0.059921592473983765, -0.08287156373262405, 0.028725717216730118, -0.03629296272993088, 0.1337732970714569, -0.04704679176211357, 0.11121464520692825, 0.004626397974789143, -0.0365431122481823, -0.045757923275232315, -0.19994600117206573, 0.003118169028311968, 0.04841111972928047, 0.03498227894306183, -0.05766753852367401, 0.08326460421085358, 0.09003140777349472, -0.01742064766585827, 0.1472552865743637, 0.018127819523215294, 0.1524174064397812], [0.09172553569078445, 0.118942029774189, 0.08667664974927902, -0.18796904385089874, 0.10129260271787643, -0.07745296508073807, 0.09695083647966385, 0.044401831924915314, -0.01560482569038868, -0.13809701800346375, 0.1754993498325348, 0.08244696259498596, -0.1326984465122223, -0.0038945095147937536, 0.098985455930233, 0.1677650809288025, 0.14085344970226288, 0.026561100035905838, -0.17186787724494934, 0.06123353913426399, -0.13709937036037445, 0.0022497365716844797, 0.09947765618562698, -0.03202296420931816, 0.14122721552848816, 0.09104883670806885, 0.10226774215698242, -0.048439666628837585, -0.11301979422569275, 0.1549641191959381, 0.09486371278762817, -0.09936289489269257, -0.04844401031732559, -0.07954470068216324, -0.0803932324051857, 0.12062563002109528, -0.06223990023136139, 0.002521335380151868, -0.0804155021905899, 0.15934781730175018, -0.06748446822166443, 0.09989740699529648, -0.18832044303417206, 0.10236507654190063, -0.22068537771701813, 0.07434838265180588, -0.10160011798143387, 0.13328374922275543, 0.1916620433330536, 0.11017923057079315, 0.08953620493412018, -0.034569524228572845, 0.16910064220428467, -0.11178667098283768, -0.1677381545305252, 0.07727016508579254, -0.14267225563526154, 0.15669281780719757, -0.033059969544410706, 0.10495264083147049, -0.09658653289079666, -0.19567547738552094, 0.02431645058095455, 0.09821286797523499, -0.07943054288625717, -0.05160687118768692, 0.024359265342354774, -0.09956169128417969, -0.18495208024978638, -0.10968858003616333, -0.04628642275929451, 0.18445321917533875, -0.059677377343177795, -0.0178156029433012, -0.06992568075656891, -0.11320530623197556, -0.12470491230487823, 0.0002613518154248595, 0.07434353977441788, -0.09743529558181763, 0.06106928363442421, 0.18324242532253265, -0.05564787611365318, 0.19058829545974731, -0.18758009374141693, -0.11355966329574585, -0.07334144413471222, 0.0042420183308422565, -0.007585887797176838, -0.1496356576681137, 0.05648406222462654, 0.11329904198646545, -0.000828633492346853, 0.09133734554052353, -0.08056388050317764, -0.1426721215248108, -0.1198640689253807, -0.06406108289957047, -0.0446959026157856, 0.11773533374071121], [-0.03162771835923195, -0.02065882831811905, -0.05721556767821312, 0.0935666486620903, -0.10164417326450348, 0.10725340992212296, -0.029870042577385902, -0.006611187942326069, -0.09022045135498047, -0.032531797885894775, 0.0662597119808197, -0.029208842664957047, -0.08887188881635666, -0.010146535001695156, 0.11608938872814178, 0.1913079172372818, 0.09189553558826447, -0.038462910801172256, -0.08781766891479492, 0.04358317330479622, 0.03443528339266777, 0.002104021841660142, -0.0805869996547699, -0.057951003313064575, -0.17608143389225006, 0.10722212493419647, -0.14475025236606598, 0.16910219192504883, 0.102237768471241, 0.0967821553349495, 0.11190476268529892, 0.1295427531003952, 0.014216245152056217, -0.1237894594669342, 0.11361321806907654, 0.0657644271850586, 0.013469158671796322, -0.07872286438941956, 0.15037350356578827, 0.08636613190174103, 0.10391274839639664, 0.07616951316595078, -0.0975809171795845, -0.09049199521541595, -0.13975217938423157, 0.06370041519403458, -0.114876389503479, 0.11582981795072556, -0.12273800373077393, 0.07986359298229218, -0.004094858653843403, -0.015884466469287872, -0.06022987887263298, -0.16381148993968964, -0.19095678627490997, -0.09944477677345276, 0.09523576498031616, -0.10282039642333984, 0.047352734953165054, 0.018062012270092964, 0.003686941461637616, 0.07165231555700302, -0.11263030022382736, -0.12902460992336273, 0.07631830871105194, 0.0741027370095253, 0.12338823080062866, -0.07342609763145447, 0.025891928002238274, 0.09253934770822525, 0.016310887411236763, -0.1407635360956192, -0.21783699095249176, -0.1339745670557022, 0.028905007988214493, 0.11514513194561005, -0.0062739611603319645, 0.1359049677848816, 0.09322872012853622, 0.06140502169728279, 0.08184318244457245, -0.12607423961162567, -0.03252820298075676, -0.047092508524656296, 0.08264821767807007, 0.008303195238113403, 0.042055707424879074, -0.11548137664794922, -0.028278131037950516, -0.07362694293260574, -0.05342691019177437, 0.1271994411945343, -0.21542751789093018, -0.15973611176013947, -0.1412493735551834, 0.09807508438825607, 0.1727275252342224, -0.0883226990699768, 0.04926728084683418, 0.19469457864761353], [-0.08409953117370605, -0.04842452332377434, 0.16001154482364655, 0.0802503377199173, 0.026385311037302017, -0.14098799228668213, 0.12656192481517792, -0.01796540804207325, 0.03540957719087601, -0.09692811220884323, -0.04658764600753784, -0.16224271059036255, 0.0285510141402483, 0.025804175063967705, -0.10637127608060837, 0.023137008771300316, 0.10669694095849991, -0.03287747874855995, -0.18442568182945251, -0.080693319439888, -0.02424686588346958, -0.13732069730758667, -0.06237291544675827, 0.0156205790117383, -0.042965807020664215, 0.09979196637868881, -0.13857029378414154, -0.11560194194316864, 0.15659885108470917, 0.11575186252593994, 0.06791861355304718, -0.10773549973964691, 0.11149752140045166, 0.1358884572982788, -0.1534179151058197, 0.16162964701652527, 0.024416178464889526, 0.20418290793895721, 0.05918078497052193, -0.048213474452495575, 0.030759252607822418, 0.15983520448207855, -0.06126514449715614, -0.008487085811793804, 0.03952904790639877, -0.007709798403084278, 0.19809837639331818, 0.02489883080124855, -0.1630346029996872, -0.2159382849931717, -0.2089730054140091, -0.15884211659431458, 0.17250415682792664, -0.031633444130420685, 0.04537717252969742, -0.07815922051668167, -0.14924931526184082, -0.014799123629927635, -0.120284304022789, -0.11621634662151337, -0.13201281428337097, 0.11445970833301544, -0.12299227714538574, 0.010941457003355026, 0.15270112454891205, -0.024028055369853973, -0.08134549111127853, -0.03500167652964592, -0.1332320123910904, 0.15788300335407257, -0.12070711702108383, 0.015272925607860088, 0.1421879678964615, -0.1475820094347, -0.0996410921216011, -0.1820128858089447, -0.1014537513256073, 0.14102309942245483, 0.19340869784355164, -0.03369058296084404, -0.04202006384730339, -0.1763857752084732, 0.06240690499544144, -0.16815780103206635, -0.07355641573667526, -0.10895493626594543, 0.10462523251771927, 0.21026358008384705, 0.06170722842216492, 0.0171329565346241, -0.07653328776359558, -0.0009391693165525794, 0.09765981882810593, -0.145220547914505, 0.014046973548829556, 0.00170634756796062, 0.03003341518342495, 0.11393559724092484, 0.06644725054502487, -0.08010782301425934], [0.10307591408491135, 0.10734084993600845, -0.15392199158668518, 0.04441525414586067, 0.036587122827768326, 0.0457773432135582, 0.15324419736862183, -0.07154998928308487, 0.17858390510082245, -0.08502709120512009, 0.1062830463051796, -0.15434777736663818, 0.014452590607106686, 0.14942607283592224, -0.1507883220911026, -0.024532435461878777, 0.14970523118972778, 0.06032324209809303, 0.07955656200647354, -0.09607791155576706, 0.10886402428150177, -0.10845419019460678, -0.09511753916740417, -0.1128401830792427, -0.004894185345619917, 0.13037744164466858, -0.1678839921951294, 0.09007755666971207, 0.14836089313030243, -0.02067105658352375, 0.00585132697597146, -0.10570180416107178, 0.16489677131175995, -0.026667991653084755, -0.11000324785709381, 0.1663491278886795, -0.07112709432840347, -0.11750470101833344, -0.051125459372997284, -0.14487840235233307, 0.12906095385551453, -0.0013691673520952463, -0.04992365837097168, -0.09572926163673401, -0.1700485348701477, 0.07623773068189621, 0.08528982102870941, 0.1530809998512268, -0.19142015278339386, 0.0667613074183464, -0.08070550858974457, 0.1510908305644989, -0.013851177878677845, -0.055761028081178665, 0.21019777655601501, 0.0598684698343277, -0.0008146694162860513, -0.06535857170820236, 0.13602577149868011, 0.12615324556827545, 0.14645442366600037, 0.09735023975372314, -0.04712092876434326, -0.17817401885986328, -0.10346130281686783, 0.0679473727941513, 0.16743627190589905, -0.10712824761867523, 0.11150282621383667, 0.011441974900662899, 0.039208654314279556, 0.07358093559741974, 0.19326721131801605, 0.10204007476568222, 0.05245405063033104, -0.192672461271286, -0.09615659713745117, -0.19660350680351257, 0.10330712795257568, -0.057799648493528366, 0.10947665572166443, -0.055899642407894135, -0.040235936641693115, 0.08354786783456802, -0.03937798738479614, -0.11834762245416641, 0.025590628385543823, -0.08594483882188797, 0.1253005862236023, 0.04980917274951935, 0.11012958735227585, 0.11085308343172073, 0.031782522797584534, 0.08637014776468277, -0.06342880427837372, 0.11483592540025711, -0.11934562027454376, -0.058826006948947906, -0.11058581620454788, -0.04105300083756447], [-0.1501479297876358, 0.08195164054632187, -0.13061997294425964, -0.11001162230968475, 0.1775907427072525, 0.1170354038476944, 0.032357197254896164, -0.03709449991583824, -0.06651235371828079, -0.18359509110450745, 0.13091851770877838, 0.11818919330835342, -0.06297426670789719, 0.09598124027252197, 0.014539008028805256, -0.043254680931568146, -0.05039381608366966, -0.026331661269068718, -0.07835941761732101, -0.18698254227638245, -0.18442949652671814, 0.026444628834724426, -0.05321511998772621, 0.16165269911289215, 0.12158183753490448, -0.14920766651630402, -0.12254294008016586, -0.03773271664977074, -0.04770386964082718, -0.09945429861545563, 0.10432863235473633, -0.08423154056072235, 0.13424603641033173, 0.15437310934066772, -0.14947016537189484, 0.004282930865883827, -0.16067762672901154, -0.20013932883739471, 0.09282813221216202, 0.11603249609470367, -0.06182475388050079, 0.04946080595254898, 0.07145677506923676, -0.13646091520786285, 0.10157445818185806, -0.016101107001304626, 0.20439650118350983, 0.09478882700204849, 0.03809056058526039, -0.08467453718185425, 0.05798034369945526, 0.05737217515707016, -0.10370564460754395, 0.036862730979919434, -0.14953775703907013, 0.03986050561070442, 0.08303388208150864, 0.011571278795599937, -0.20197348296642303, -0.07504712790250778, -0.0200370941311121, -0.1729881763458252, -0.15964095294475555, 0.05887683853507042, 0.0008074052748270333, -0.035684872418642044, 0.16987863183021545, 0.17005041241645813, 0.16747285425662994, 0.11627376079559326, -0.1380569040775299, 0.10121068358421326, 0.13833852112293243, -0.19019290804862976, -0.020162617787718773, -0.08825184404850006, 0.09435313194990158, -0.09330525994300842, 0.11271898448467255, 0.08489066362380981, -0.02403188869357109, 0.09450235217809677, -0.007129979785531759, 0.024669336155056953, -0.0617641843855381, 0.16683071851730347, -0.022016581147909164, 0.0698094591498375, 0.08918023109436035, -0.15571792423725128, 0.08833438903093338, -0.18461094796657562, -0.1275903582572937, 0.09194986522197723, -0.19049690663814545, -0.09547984600067139, -0.006345002446323633, 0.09091087430715561, 0.13852936029434204, -0.12750586867332458], [0.0002400251105427742, -0.053601816296577454, 0.14395563304424286, 0.05915924161672592, -0.05662073567509651, 0.07269418239593506, 0.007874714210629463, 0.13733334839344025, 0.006581964902579784, 0.042355652898550034, -0.04829903692007065, -0.011478145606815815, 0.06542441248893738, -0.10021983832120895, -0.014753188006579876, 0.1323750913143158, -0.05373610928654671, -0.05517001450061798, 0.12064625322818756, 0.06034863367676735, 0.06557639688253403, -0.11774396151304245, -0.04511141777038574, -0.030674993991851807, 0.1680777370929718, 0.15609192848205566, 0.15678183734416962, -0.07709213346242905, -0.2043832540512085, -0.1267964094877243, -0.0250551737844944, -0.06430010497570038, -0.09916038066148758, -0.03703123331069946, -0.15423233807086945, -0.017530372366309166, -0.13891960680484772, 0.12917613983154297, -0.12834739685058594, 0.1306060552597046, -0.1096678301692009, 0.13230030238628387, 0.005223595537245274, -0.11679182946681976, -0.15817150473594666, -0.003005074104294181, -0.027577446773648262, -0.08272182196378708, -0.039016928523778915, -0.1081128716468811, -0.16610608994960785, -0.17804975807666779, 0.07679659128189087, 0.028016220778226852, -0.0716111958026886, 0.12491466850042343, 0.038860902190208435, -0.0114901689812541, 0.1948762685060501, -0.0576992891728878, 0.02156522125005722, -0.04809701442718506, -0.029633114114403725, 0.10088827461004257, 0.02521369233727455, -0.13569685816764832, -0.11902707070112228, -0.03987528011202812, -0.03054126352071762, -0.04059986770153046, -0.1318255215883255, 0.15952414274215698, 0.04982297122478485, 0.05179179459810257, -0.012734412215650082, -0.012632147409021854, 0.06810678541660309, -0.04097774997353554, -0.011803576722741127, 0.011293272487819195, -0.07539887726306915, -0.10115648061037064, 0.049096498638391495, 0.053156740963459015, -0.13833628594875336, 0.08153240382671356, 0.16283439099788666, 0.09428516030311584, 0.09596200287342072, -0.04128965735435486, -0.05986935272812843, 0.006954635959118605, -0.0629865974187851, -0.15160183608531952, -0.025827862322330475, 0.05155429244041443, -0.027134498581290245, -0.1720365285873413, 0.05375153198838234, -0.11861160397529602], [-0.1438940167427063, -0.0006045898189768195, 0.0948510468006134, 0.1505051553249359, -0.028567718341946602, -0.013846021145582199, -0.09161870181560516, -0.09617705643177032, -0.041485559195280075, 0.06588532775640488, 0.15662719309329987, 0.09962800145149231, 0.04375790059566498, -0.0541289821267128, -0.030591698363423347, 0.10986007004976273, -0.06731268763542175, -0.0728812888264656, -0.004408603999763727, 0.17116694152355194, -0.04018401727080345, -0.09907705336809158, -0.04336152970790863, 0.029244761914014816, 0.09644565731287003, -0.07491746544837952, -0.051736023277044296, -0.1560099869966507, 0.02388262376189232, 0.06269130855798721, -0.12413690984249115, 0.15145273506641388, -0.07587990909814835, -0.1194937601685524, -0.036817919462919235, 0.16738396883010864, -0.07645004242658615, -0.0003768479800783098, 0.017579685896635056, -0.09822551906108856, -0.004803490824997425, 0.029340241104364395, 0.06735505908727646, -0.207698255777359, 0.05951807275414467, -0.019838929176330566, 0.11278513073921204, -0.033539533615112305, 0.05193484202027321, 0.032605208456516266, -0.04911036416888237, 0.10533065348863602, 0.15681274235248566, 0.03247031196951866, 0.06061641871929169, 0.11631109565496445, -0.14114904403686523, -0.13729161024093628, -0.06034204736351967, -0.08981874585151672, -0.0013327297056093812, 0.01434189360588789, -0.005067621823400259, -0.09768474102020264, 0.1501888781785965, -0.09003528207540512, -0.08855829387903214, -0.013027163222432137, 0.19370876252651215, -0.08166778832674026, 0.17748910188674927, 0.08451861143112183, 0.107843779027462, -0.060715895146131516, -0.09884556382894516, -0.17033477127552032, -0.08618418127298355, 0.017367016524076462, -0.1799456775188446, -0.0873473510146141, -0.09982603043317795, -0.10756608098745346, 0.15769675374031067, 0.0845102071762085, -0.11891329288482666, 0.045400746166706085, -0.07388516515493393, -0.11249525845050812, 3.5609043607109925e-06, -0.03333073854446411, 0.10918594896793365, 0.09958169609308243, -0.08739373087882996, -0.007163877133280039, -0.000980943557806313, -0.13477428257465363, -0.0698593482375145, 0.14714199304580688, 0.04021846130490303, 0.13939045369625092], [0.1848400980234146, 0.07276725769042969, 0.06687527149915695, -0.05661879852414131, 0.00813574530184269, -0.15504804253578186, -0.11894889920949936, 0.15176907181739807, 0.05711035430431366, 0.178738072514534, -0.16996656358242035, 0.12344903498888016, -0.14105524122714996, -0.16133809089660645, -0.08675695955753326, -0.18074849247932434, 0.15777263045310974, 0.1029013842344284, -0.11708048731088638, 0.020040780305862427, 0.045797199010849, 0.058715369552373886, -0.16546913981437683, -0.11480652540922165, -0.1666967272758484, 0.07967959344387054, -0.0471612922847271, 0.17186535894870758, -0.05644787847995758, -0.10857081413269043, 0.14373959600925446, 0.10336899012327194, -0.12056373059749603, -0.029581677168607712, -0.13382616639137268, -0.11291833966970444, -0.06691279262304306, 0.06740564852952957, 0.0800466239452362, 0.054352182894945145, 0.03212079033255577, -0.0653671845793724, -0.16125933825969696, -0.11846408247947693, 0.07465934753417969, -0.06676942110061646, 0.0001944129035109654, 0.17068755626678467, 0.12919175624847412, -0.0078366594389081, -0.05324341356754303, 0.126371368765831, 0.028638478368520737, -0.10671550780534744, -0.16800570487976074, 0.06725692749023438, -0.1283210813999176, 0.09387117624282837, 0.030616946518421173, 0.07632651925086975, 0.03559287264943123, 0.16450928151607513, -0.18116486072540283, -0.11803890019655228, -0.10857118666172028, -0.06812332570552826, -0.04544590041041374, -0.04225035384297371, -0.011557581834495068, -0.17225006222724915, -0.15585559606552124, -0.09303484857082367, 0.09707885980606079, 0.14198049902915955, -0.035168830305337906, 0.061860594898462296, 0.08763338625431061, 0.0482591837644577, -0.030179135501384735, -0.12997496128082275, -0.13295944035053253, 0.16797466576099396, 0.04130582511425018, 0.1354960948228836, 0.11146721243858337, -0.019944434985518456, 0.040236275643110275, -0.06427253037691116, 0.08490153402090073, 0.10242191702127457, -0.03250943124294281, 0.11545775830745697, -0.10811207443475723, -0.17361658811569214, 0.14340084791183472, -0.12395970523357391, -0.08207550644874573, -0.05950414761900902, 0.1122516319155693, -0.011239399202167988], [0.028737792745232582, 0.0661398321390152, -0.016902023926377296, -0.1735205203294754, -0.0685548335313797, 0.05504317954182625, 0.14177222549915314, -0.0006626717513427138, -0.038007788360118866, -0.0806511715054512, 0.014134552329778671, -0.013375566340982914, 0.10703586786985397, -0.07160861790180206, -0.023100409656763077, 0.08755715936422348, -0.06952545046806335, 0.1851324588060379, 0.0022067157551646233, -0.06679275631904602, -0.051647234708070755, -0.01697145402431488, -0.037077728658914566, -0.14194472134113312, -0.11381985992193222, 0.05223572254180908, 0.11681671440601349, -0.02041373774409294, -0.02140420861542225, 0.07925219088792801, 0.023905299603939056, -0.09009402990341187, -0.11512824892997742, -0.008592827245593071, 0.12740086019039154, 0.09582209587097168, -0.11621713638305664, 0.09478304535150528, 0.03316541388630867, -0.0013122783275321126, -0.02138335444033146, -0.1417142152786255, -0.16612878441810608, 0.09854930639266968, 0.08963607996702194, -0.001620283699594438, 0.06591308861970901, -0.08943896740674973, -0.14611022174358368, -0.15250104665756226, -0.1402081996202469, 0.08958520740270615, 0.12778355181217194, -0.018375959247350693, -0.0894966647028923, -0.11488538235425949, 0.07607772201299667, 0.06022714823484421, 0.08169005811214447, -0.09647078812122345, 0.05305704474449158, -0.14237338304519653, -0.12275806814432144, -0.05451430380344391, -0.08992866426706314, -0.17301803827285767, -0.13771328330039978, -0.15781381726264954, -0.03392104431986809, -0.1342240869998932, 0.09654837101697922, 0.11329469084739685, 0.10576359182596207, 0.032724473625421524, 0.0520796999335289, 0.04767321050167084, -0.05837444216012955, -0.03922474756836891, -0.07181571424007416, 0.016296714544296265, 0.19324365258216858, 0.06465598195791245, -0.10499966144561768, -0.008923877030611038, 0.11062249541282654, 0.16640175879001617, -0.06357482820749283, -0.06977233290672302, -0.07042448222637177, 0.10096058249473572, 0.07588252425193787, 0.10619324445724487, -0.0572032704949379, 0.11586335301399231, 0.002963926177471876, -0.04476524144411087, 0.08743934333324432, -0.11059985309839249, -0.008281855843961239, -0.06915638595819473], [-0.1183771938085556, -0.15031155943870544, -0.07537912577390671, 0.059719547629356384, -0.044420499354600906, -0.050841812044382095, -0.09791873395442963, -0.16666319966316223, -0.15977564454078674, 0.012032442726194859, -0.04384390637278557, 0.05037454888224602, 0.13603124022483826, 0.05232882499694824, 0.10033105313777924, -0.014330249279737473, -0.002787528559565544, 0.15430673956871033, 0.12867772579193115, 0.10003361105918884, -0.09385767579078674, -0.0016373569378629327, 0.10298532992601395, -0.011143902316689491, 0.03345942497253418, -0.09886520355939865, 0.011650069616734982, 0.16007006168365479, 0.018223201856017113, -0.02587256394326687, 0.027222778648138046, -0.13371261954307556, -0.08907321840524673, -0.012002568691968918, -0.15619347989559174, -0.05655878782272339, 0.11302545666694641, -0.02623015269637108, 0.11194131523370743, 0.05918459594249725, -0.04784231632947922, 0.012466705404222012, -0.02007336914539337, -0.11174715310335159, -0.11158021539449692, -0.12866847217082977, 0.09019188582897186, 0.06196523457765579, -0.011203776113688946, -0.04653727263212204, 0.049870315939188004, -0.16229838132858276, -0.04284246265888214, -0.13050775229930878, 0.059920161962509155, -0.04690629988908768, -0.16110087931156158, -0.015594814904034138, -0.1491549164056778, -0.08160927146673203, 0.1496993899345398, 0.004217515233904123, -0.0519142784178257, -0.09132058173418045, 0.053448136895895004, -0.035976290702819824, -0.053306497633457184, -0.13543948531150818, -0.058720845729112625, -0.03730903938412666, 0.005306422244757414, 0.17257994413375854, 0.044273968786001205, -0.06342478096485138, 0.04947022721171379, -0.08649458736181259, 0.1571406126022339, 0.07348969578742981, 0.09967701882123947, 0.03307762369513512, -0.02329639531672001, 0.052696555852890015, -0.08710840344429016, -0.11886614561080933, -0.07998595386743546, -0.16526654362678528, 0.12974891066551208, 0.05872483551502228, -0.07404936105012894, -0.07806956768035889, -0.049894966185092926, 0.1513822227716446, 0.02440350316464901, 0.12861621379852295, -0.06707844883203506, 0.1623835563659668, -0.03764982149004936, -0.09174012392759323, 0.012237301096320152, -0.040137600153684616], [0.12468522787094116, 0.12058420479297638, 0.016334781423211098, -0.00026529733440838754, -0.06305991113185883, -0.17774663865566254, -0.08713291585445404, 0.17036651074886322, -0.14021532237529755, -0.1393664926290512, 0.08186709880828857, 0.1441354751586914, 0.007561040576547384, 0.14194181561470032, -0.11325927078723907, 0.11009519547224045, -0.07078297436237335, -0.05847572907805443, 0.1345842033624649, -0.06796030700206757, -0.1476038545370102, -0.06418966501951218, 0.06311570107936859, 0.06227368116378784, 0.07338033616542816, -0.05787158012390137, 0.13265864551067352, 0.08178909122943878, -0.07430404424667358, -0.03492720052599907, -0.007759208790957928, 0.11030719429254532, -0.086800716817379, -0.06692701578140259, -0.014391807839274406, -0.03578571602702141, 0.008204959332942963, -0.17948077619075775, 0.14251525700092316, -0.08315279334783554, -0.16294318437576294, 0.039939746260643005, -0.030619049444794655, 0.11368466168642044, -0.15829893946647644, 0.013129003345966339, -0.14001896977424622, -0.07524368166923523, -0.01013188622891903, 0.06556657701730728, -0.09070730954408646, -0.09772088378667831, -0.024318618699908257, -0.009584179148077965, 0.20239289104938507, 0.0434592068195343, 0.005592836998403072, -0.12023600935935974, -0.09515836089849472, -0.1289609968662262, 0.01272022444754839, -0.042462702840566635, -0.17268890142440796, -0.17914704978466034, -0.01636485569179058, 0.07054212689399719, 0.17406153678894043, 0.015907971188426018, 0.14380161464214325, -0.009694474749267101, -0.06685449182987213, -0.0758739486336708, 0.05696404352784157, 0.15512701869010925, -0.09326688200235367, 0.053498294204473495, -0.12258938699960709, -0.14053015410900116, -0.03472192585468292, -0.052640151232481, -0.1495811492204666, -0.016576116904616356, -0.06990186125040054, 0.17131906747817993, -0.054861195385456085, -0.07246626913547516, 0.009343909099698067, -0.02923150546848774, 0.21177388727664948, 0.12839660048484802, 0.17219595611095428, -0.10318458080291748, -0.04566998779773712, 0.06626646220684052, -0.04010288789868355, 0.006991538219153881, -0.08330453187227249, 0.14309850335121155, 0.06544081121683121, -0.03826109319925308], [-0.12393175810575485, -0.01906113140285015, 0.04466908797621727, -0.15418066084384918, 0.1098053827881813, -0.01264402735978365, -0.10989078879356384, 0.016905194148421288, 0.0789121612906456, -0.15269255638122559, 0.018903838470578194, -0.1295713633298874, 0.012104219757020473, 0.11759589612483978, -0.061009250581264496, 0.149733766913414, -0.028585802763700485, -0.02725945971906185, 0.15295033156871796, 0.014069212600588799, 0.0445854514837265, -0.061408184468746185, -0.08901909738779068, 0.10801931470632553, 0.21537359058856964, 0.2053501456975937, 0.01529693603515625, 0.05543895438313484, 0.0010024934308603406, -0.11622313410043716, 0.014778196811676025, 0.004889577627182007, -0.016557123512029648, 0.1571391522884369, 0.0948619395494461, -0.11896931380033493, -0.029432930052280426, -0.03596440330147743, 0.15670858323574066, 0.07314397394657135, 0.00907935667783022, 0.10494015365839005, -0.1539594680070877, -0.10677330195903778, -0.06455765664577484, 0.018114682286977768, 0.04255291447043419, -0.08005978912115097, 0.07466603070497513, -0.1305500715970993, 0.19995659589767456, 0.11312901228666306, -0.19701755046844482, -0.05379270762205124, -0.00024350125750061125, 0.11650451272726059, 0.13307985663414001, 0.005178927443921566, 0.010723107494413853, -0.05060669407248497, -0.024199971929192543, 0.122883141040802, 0.0043796817772090435, 0.09828445315361023, -0.13388977944850922, 0.058642417192459106, -0.05499943718314171, 0.052861288189888, -0.04122158885002136, -0.10250742733478546, -0.16643467545509338, -0.0060176970437169075, -0.14243072271347046, -0.07167576998472214, 0.06238718330860138, 0.10797885060310364, -0.17219030857086182, 0.0009024488390423357, 0.126629039645195, 0.12446247041225433, 0.14865243434906006, -0.14654476940631866, -0.03680022805929184, 0.006628391798585653, -0.16593500971794128, 0.061912935227155685, -0.07283593714237213, -0.12478350847959518, -0.03644005209207535, -0.005204604007303715, -0.06715312600135803, -0.0666981190443039, -0.06641791760921478, 0.061476971954107285, 0.0684301033616066, -0.06548081338405609, -0.19594456255435944, -0.05382164195179939, -0.13124129176139832, 0.10615573823451996], [-0.08012162148952484, 0.02038557082414627, 0.18058010935783386, 0.13888300955295563, 0.018507571890950203, 0.20085732638835907, 0.01168117392808199, 0.09754135459661484, -0.1631755828857422, 0.027310196310281754, -0.19610942900180817, -0.14571380615234375, -0.06889933347702026, -0.12502135336399078, -0.04832550883293152, 0.15022417902946472, 0.13381052017211914, 0.18382148444652557, -0.06712385267019272, -0.15515486896038055, 0.14889895915985107, 0.0832781121134758, 0.14722022414207458, -0.15501034259796143, 0.008732540532946587, -0.001453628297895193, 0.18306556344032288, 0.1185985654592514, 0.16555088758468628, -0.12906420230865479, 0.07055980712175369, -0.09698322415351868, 0.15347236394882202, -0.1505853831768036, 0.026023944839835167, 0.008497310802340508, 0.030766967684030533, 0.06307440251111984, -0.12768591940402985, 0.152302548289299, 0.09770433604717255, 0.06182137131690979, 0.17725497484207153, -0.12267205864191055, -0.11165334284305573, -0.02585817500948906, 0.0941653922200203, -0.016532884910702705, -0.02983151376247406, 0.10017887502908707, 0.19576396048069, -0.10150199383497238, -0.002746433485299349, -0.15711893141269684, -0.07671228051185608, 0.017996525391936302, -0.039937760680913925, -0.08579191565513611, -0.16652944684028625, -0.1599995195865631, -0.18115128576755524, 0.03375053405761719, -0.025189489126205444, -0.059032510966062546, 0.08093283325433731, -0.0067575243301689625, -0.014846415258944035, 0.1858760565519333, -0.06126125529408455, -0.1338701993227005, 0.057094741612672806, 0.168254092335701, 0.032362982630729675, -0.04739828780293465, -0.20326244831085205, 0.13289211690425873, -0.1981286108493805, -0.17300862073898315, 0.12692296504974365, -0.08420155197381973, -0.12322807312011719, 0.1328888088464737, 0.015715792775154114, -0.08624767512083054, -0.11495126783847809, 0.052746959030628204, -0.06452755630016327, 0.05922016128897667, -0.05760966241359711, 0.0567583329975605, -0.047344762831926346, 0.06826302409172058, 0.08898098021745682, -0.029370257630944252, -0.08498556911945343, -0.12275510281324387, 0.03915870562195778, -0.0297955721616745, 0.10863664746284485, -0.16278161108493805], [-0.11625619232654572, -0.12051942944526672, -0.11063124239444733, 0.015058957040309906, 0.095663882791996, 0.021559692919254303, 0.0568312369287014, -0.052409738302230835, 0.1061486303806305, -0.20621933043003082, 0.14887413382530212, -0.042753417044878006, 0.008818605914711952, 0.03295687586069107, 0.1603740155696869, 0.10805453360080719, 0.12869267165660858, 0.03042856603860855, 0.009435713291168213, 0.11212725937366486, 0.13911139965057373, 0.09220398962497711, 0.02066374011337757, 0.13186459243297577, 0.11015934497117996, 0.0973801240324974, 0.1000274196267128, 0.10177265852689743, 0.050961483269929886, 0.16925165057182312, -0.13076789677143097, -0.15101149678230286, -0.17698998749256134, 0.10019528120756149, 0.008744434453547001, 0.2066413313150406, -0.07084562629461288, 0.06029178574681282, 0.004645425360649824, -0.07589011639356613, -0.03285687789320946, -0.09254249185323715, -0.1877196580171585, 0.019621452316641808, 0.08887608349323273, 0.09381305426359177, 0.03336288407444954, 0.1588660329580307, 0.08337033540010452, -0.13175687193870544, -0.15944764018058777, -0.15847471356391907, 0.12365856021642685, 0.03966660052537918, 0.07885611057281494, -0.06874359399080276, 0.12056136131286621, 0.16485938429832458, -0.03536783531308174, -0.03089233860373497, -0.005186547990888357, -0.04557527229189873, -0.1282278448343277, 0.05546659976243973, 0.18488050997257233, -0.12270140647888184, -0.016346385702490807, 0.014932169578969479, 0.08345692604780197, 0.10710781067609787, 0.11783894151449203, 0.004904972389340401, -0.051025304943323135, -0.006175932474434376, -0.018659409135580063, -0.02780381590127945, 0.09914597868919373, 0.002626243745908141, 0.028545258566737175, 0.011368360370397568, 0.08880382776260376, 0.08594410866498947, 0.04142734408378601, 0.01099602784961462, 0.11230909079313278, 0.11768776923418045, -0.15527260303497314, -0.04096148908138275, 0.034462228417396545, -0.08500593900680542, 0.13787595927715302, 0.12915372848510742, -0.13421067595481873, -0.02469915710389614, 0.020503979176282883, 0.19261950254440308, 0.060735125094652176, 0.012476664036512375, -0.021895138546824455, -0.1301404982805252], [0.06503625214099884, -0.1369396299123764, 0.008479634299874306, 0.08869163691997528, 0.010596433654427528, -0.051559705287218094, -0.06594806164503098, -0.13901865482330322, 0.0175049789249897, 0.061250220984220505, 0.11707573384046555, 0.08071962743997574, 0.015160690061748028, 0.011529051698744297, -0.041389238089323044, -0.1690087616443634, 0.08151116967201233, 0.14314794540405273, -0.13436593115329742, 0.08059459179639816, -0.046812210232019424, -0.013634607195854187, -0.1354399174451828, 0.08138880878686905, -0.004608822986483574, 0.04269231855869293, -0.07589039951562881, -0.14306049048900604, 0.09842735528945923, 0.1435425728559494, -0.1496811956167221, 0.02779320441186428, 0.14877669513225555, 0.02326161228120327, -0.11162351071834564, -0.009130152873694897, -0.15937304496765137, -0.015701159834861755, 0.04689720645546913, 0.0031082748901098967, -0.002047561341896653, -0.08657914400100708, 0.15307378768920898, -0.07712406665086746, -0.11078698188066483, 0.08303775638341904, 0.06763771921396255, -0.026239603757858276, -0.04278583452105522, -0.10711690038442612, 0.046711236238479614, 0.10261978954076767, 0.08045817911624908, 0.06166413798928261, 0.12039010226726532, 0.09660597145557404, 0.15696896612644196, 0.01910054124891758, -0.12220267206430435, 0.15082187950611115, 0.07155945897102356, 0.13002292811870575, -0.07358069717884064, -0.03137940168380737, -0.07075276225805283, -0.13616713881492615, -0.06038448587059975, -0.1463032364845276, -0.0012086506467312574, -0.14933958649635315, 0.1787114441394806, 0.14143352210521698, 0.15618708729743958, 0.10068562626838684, -0.03780075162649155, 0.15786521136760712, 0.05767618119716644, 0.08003374934196472, -0.01193237490952015, -3.0178263841662556e-05, 0.08059569448232651, -0.0931520089507103, 0.08713038265705109, -0.1857679933309555, -0.158874973654747, -0.015107821673154831, 0.1052602007985115, 0.08976144343614578, -0.14495855569839478, -0.048160240054130554, -0.05290010944008827, -0.10441405326128006, 0.05880572274327278, -0.1491134613752365, 0.033369846642017365, 0.10494741797447205, 0.08936569094657898, 0.15873804688453674, 0.06833013147115707, 0.12005484104156494], [0.007005032151937485, -0.12668925523757935, 0.06823281943798065, -0.02437111735343933, 0.08964638411998749, 0.08055663108825684, 0.030984196811914444, 0.037669189274311066, 0.1480221450328827, 0.07628948241472244, -0.10062871873378754, 0.047113507986068726, -0.025595825165510178, -0.03795088082551956, 0.0528089813888073, -0.10447245836257935, -0.08096574246883392, 0.15912802517414093, -0.057024504989385605, 0.11420316249132156, -0.13461844623088837, -0.01711115427315235, 0.10867815464735031, 0.10072699189186096, 0.023647645488381386, 0.057867880910634995, 0.12058544158935547, -0.08229340612888336, 0.12906980514526367, -0.07461482286453247, 0.044644925743341446, -0.04579620435833931, -0.11038221418857574, -0.0025033755227923393, -0.012522215954959393, 0.029311032965779305, -0.016728118062019348, -0.03725305199623108, -0.15330971777439117, -0.036814674735069275, -0.09235098958015442, -0.08107828348875046, -0.08427397906780243, 0.19772769510746002, 0.18082137405872345, 0.003007257590070367, -0.02754153497517109, -0.1370910108089447, -0.09460857510566711, -0.18640856444835663, -0.07421912252902985, -0.12113898992538452, 0.011934482492506504, 0.10020206868648529, -0.14336177706718445, -0.08199945092201233, 0.05174888297915459, 0.15736551582813263, -0.08950940519571304, -0.05861714482307434, -0.02491486445069313, -0.017561430111527443, 0.08477690815925598, 0.10610989481210709, 0.11302520334720612, 0.11306656897068024, 0.05964035168290138, 0.14614161849021912, -0.05222826823592186, -0.05802549421787262, -0.08654244989156723, 0.039662424474954605, 0.1293298453092575, 0.008227595128118992, -0.08443184196949005, 0.019279619678854942, -0.03559506684541702, -0.03441812843084335, 0.13746494054794312, -0.10612764954566956, -0.18062469363212585, -0.1512090116739273, -0.15466107428073883, 0.11878670006990433, 0.13725951313972473, -0.11710569262504578, 0.0382857546210289, 0.01162821426987648, 0.1394777148962021, -0.12460770457983017, -0.1401204913854599, -0.08520130068063736, -0.0579819530248642, -0.041130997240543365, -0.014666394330561161, 0.0038604645524173975, -0.11409083753824234, 0.12103499472141266, 0.02300800010561943, -0.011159226298332214], [-0.0609249509871006, -0.10837604850530624, 0.08156032860279083, 0.004313480108976364, 0.009564145468175411, -0.02995450794696808, -0.06109723448753357, 0.05694830045104027, -0.04288816079497337, -0.06331779807806015, 0.002151366090402007, -0.05272321030497551, -0.10399112105369568, -0.0653582364320755, 0.014756587333977222, 0.16171403229236603, -0.13352319598197937, 0.05660637468099594, 0.07381473481655121, 0.11409417539834976, 0.009707198478281498, -0.07249066978693008, -0.0030609644018113613, -0.10913102328777313, -0.09285568445920944, 0.048629600554704666, 0.14192339777946472, -0.12160053849220276, 0.09066846966743469, 0.08326269686222076, -0.06484239548444748, 0.07719449698925018, 0.04141310602426529, -0.14176452159881592, 0.08096466213464737, -0.17717668414115906, 0.04630938172340393, -0.058521974831819534, -0.162503182888031, -0.07029496133327484, 0.07609576731920242, 0.13691000640392303, -0.011704152449965477, 0.17286193370819092, -0.0009392752544954419, 0.02424313686788082, -0.05994987115263939, 0.01072575245052576, 0.06695682555437088, 0.04351881891489029, 0.1201281026005745, 0.0465986467897892, 0.048016373068094254, -0.030551595613360405, 0.09112897515296936, -0.19331654906272888, 0.11505549401044846, 0.13200482726097107, -0.11803971976041794, 0.021754978224635124, -0.016125991940498352, 0.08780469000339508, 0.09456551820039749, 0.14571671187877655, 0.0023939020466059446, 0.1616246998310089, -0.0853608101606369, -0.05321944132447243, -0.12426714599132538, 0.10509053617715836, 0.1527366191148758, -0.0845484733581543, -0.15816794335842133, -0.09031297266483307, -0.11503268033266068, 0.015005410648882389, -0.06952543556690216, 0.1264055073261261, -0.03785305097699165, 0.11621973663568497, 0.11543441563844681, -0.0474945493042469, -0.0602661594748497, 0.017053622752428055, 0.07147307693958282, 0.1900719553232193, -0.04342590644955635, 0.038584716618061066, -0.07110447436571121, 0.13334426283836365, -0.06762818247079849, -0.10341635346412659, 0.06819245964288712, 0.08872269093990326, -0.08855997025966644, 0.0577179454267025, -0.09107763320207596, 0.08063606917858124, -0.08140210062265396, 0.03532177209854126], [0.1260441541671753, 0.0736982449889183, -0.0634307712316513, 0.051057543605566025, -0.06635309755802155, 0.1258402019739151, 0.08120323717594147, 0.018419452011585236, -0.04126274958252907, 0.08158454298973083, 0.052860211580991745, -0.04801970347762108, 0.04821453616023064, 0.07691890746355057, 0.20243966579437256, 0.10865051299333572, -0.02825150080025196, 0.13216066360473633, 0.023294053971767426, -0.14570209383964539, -0.002061162143945694, -0.047597672790288925, 0.11042793095111847, 0.062435612082481384, 0.0036647713277488947, 0.03411504253745079, -0.14261120557785034, 0.035268355160951614, 0.09795216470956802, 0.013032042421400547, -0.16557210683822632, -0.060979168862104416, -0.001257790601812303, 0.04598725214600563, 0.1694711297750473, -0.02986782230436802, -0.10127165168523788, -0.1815105825662613, 0.08469845354557037, -0.12873172760009766, -0.029791198670864105, -0.1464698314666748, 0.16260215640068054, 0.11854968219995499, 0.1971602886915207, -0.08987314254045486, -0.14274150133132935, -0.12168499827384949, -0.14405296742916107, 0.040702059864997864, 0.011109869927167892, 0.14109602570533752, -0.1288338303565979, 0.17367412149906158, 0.1668887734413147, -0.13761425018310547, -0.04247545078396797, 0.0326714962720871, -0.12918899953365326, -0.0031197774223983288, -0.04097000136971474, 0.12345356494188309, 0.04762943834066391, -0.10047788172960281, 0.03862762451171875, -0.08473212271928787, -0.1736045628786087, 0.002962893107905984, -0.17132651805877686, -0.19521325826644897, -0.10316119343042374, 0.15586350858211517, 0.12519827485084534, 0.11389104276895523, -0.04338885843753815, -0.1640305519104004, 0.10488948225975037, -0.10406895726919174, -0.15432694554328918, 0.047305878251791, -0.041153695434331894, 0.15651525557041168, 0.1495225876569748, -0.05637926608324051, -0.06996435672044754, 0.11524287611246109, 0.1310785561800003, 0.12829184532165527, 0.030274536460638046, 0.10576869547367096, 0.04760519787669182, -0.15594980120658875, -0.10084599256515503, -0.04306105151772499, 0.04688870161771774, 0.1639547199010849, 0.04689269885420799, 0.19093888998031616, -0.16565589606761932, 0.09905178099870682], [0.0967845767736435, -0.14590580761432648, 0.03565213829278946, -0.12994083762168884, 0.01352508831769228, -0.06513354182243347, 0.1608673483133316, 0.13545826077461243, 0.04512282460927963, -0.11170566827058792, 0.1155417189002037, 0.061574146151542664, 0.013198740780353546, 0.007745954208076, -0.10804812610149384, -0.10605283826589584, -0.13316959142684937, 0.16159048676490784, 0.1669280081987381, 0.11526354402303696, 0.16881537437438965, 0.005935551133006811, -0.16158521175384521, -0.07227388769388199, -0.013042799197137356, -0.07076027244329453, -0.03282671421766281, 0.03614509105682373, -0.17249450087547302, 0.09617742151021957, 0.185239776968956, -0.06474122405052185, -0.22127123177051544, -0.028534043580293655, 0.13725164532661438, 0.10715258866548538, -0.06898242235183716, -0.18718302249908447, -0.057094138115644455, 0.013360420241951942, 0.0038376522716134787, -0.12515775859355927, 0.08611316233873367, -0.01270549651235342, -0.07277946174144745, 0.01651286520063877, -0.11386463046073914, 0.11316610872745514, -0.11399397253990173, -0.1319858878850937, 0.04957601800560951, -0.14640149474143982, 0.03836264833807945, -0.15332730114459991, 0.08258979022502899, -0.07351502031087875, -0.025074385106563568, 0.009100888855755329, -0.09438907355070114, -0.06872912496328354, -0.1305234581232071, 0.09507331997156143, 0.14564618468284607, -0.08949999511241913, -0.02269258163869381, -0.041076675057411194, -0.19950811564922333, 0.10338392108678818, -0.04777314141392708, -0.06289689242839813, -0.019650204107165337, -0.09773536771535873, 0.15503063797950745, -0.10902410745620728, 0.008613184094429016, -0.08963380753993988, -0.13497519493103027, -0.0142751419916749, -0.02534310147166252, 0.02235443703830242, 0.030857088044285774, -0.12097460776567459, -0.017705867066979408, -0.1300375908613205, 0.11803507059812546, -0.06690295785665512, -0.08207830041646957, 0.05762537196278572, 0.15766307711601257, 0.009653203189373016, -0.09039285033941269, -0.17068754136562347, -0.13787584006786346, 0.11614184081554413, -0.046414103358983994, 0.20960749685764313, 0.0058852145448327065, -0.0653102695941925, 0.07125567644834518, -0.15044298768043518], [0.12704525887966156, -0.08413098007440567, -0.13516585528850555, -0.006653583608567715, 0.05176609754562378, 0.13416606187820435, -0.0911932960152626, 0.12922242283821106, -0.147455096244812, 0.1037735790014267, 0.04456724599003792, 0.02703370526432991, 0.03692073002457619, -0.10866106301546097, 0.11559876799583435, -0.17980578541755676, 0.16108675301074982, 0.18615299463272095, 0.14994917809963226, -0.14637050032615662, -0.10030420869588852, -0.07529366761445999, 0.020848514512181282, 0.07272125780582428, 0.07216580957174301, 0.1383972316980362, -0.01903095282614231, 0.07625450938940048, 0.04855765774846077, 0.12923602759838104, -0.20118138194084167, -0.09575943648815155, -0.07169544696807861, 0.12191440910100937, -0.07733862847089767, 0.17056375741958618, 0.00576787767931819, 0.14812752604484558, 0.12754768133163452, -0.018035678192973137, -0.02328236773610115, -0.023639101535081863, -0.14216528832912445, 0.07800660282373428, 0.03638099506497383, -0.16355416178703308, 0.030595099553465843, 0.04185988008975983, -0.003425446106120944, -0.0640871599316597, 0.11004840582609177, 0.15736201405525208, -0.08795607835054398, -0.10817494988441467, 0.07782828062772751, -0.06949415057897568, -0.08636316657066345, -0.1153658851981163, 0.02209211327135563, 0.002405640436336398, 0.13943246006965637, 0.19031064212322235, -0.07560214400291443, -0.049482155591249466, -0.0712910145521164, -0.014774708077311516, 0.0938136950135231, 0.067396380007267, 0.12708550691604614, -0.05709892883896828, -0.049071069806814194, -0.08323011547327042, -0.12085174024105072, -0.05429082736372948, -0.10156726092100143, -0.1261015683412552, 0.15582187473773956, -0.0333578921854496, 0.10156290978193283, -0.045776333659887314, 0.04348848760128021, -0.2278834730386734, -0.05309749022126198, -0.08537409454584122, -0.22297486662864685, -0.19448710978031158, 0.00945678073912859, 0.13630017638206482, 0.16788168251514435, 0.09725253283977509, 0.028624756261706352, -0.16687114536762238, -0.05403570458292961, 0.06269590556621552, -0.049920905381441116, -0.01914297044277191, 0.06537757813930511, -0.024196317419409752, 0.002580793108791113, 0.15402795374393463], [-0.058083128184080124, -0.05078365281224251, 0.06044064089655876, -0.1680876463651657, 0.05651937425136566, -0.06591746211051941, 0.03604377806186676, 0.06560226529836655, 0.05636967346072197, -0.04134984686970711, 0.0900939553976059, 0.18458126485347748, -0.11253859847784042, 0.1386648565530777, -0.026226604357361794, -0.0701027512550354, -0.006714545655995607, -0.004668377339839935, -0.13031260669231415, -0.008914393372833729, 0.10795226693153381, 0.002397267846390605, 0.045866966247558594, 0.00640493119135499, -0.11431774497032166, 0.022803455591201782, -0.09351005405187607, -0.01900845393538475, -0.09053763002157211, -0.07906293123960495, -0.07596471905708313, -0.06314968317747116, 0.015680616721510887, 0.12100454419851303, -0.11509516090154648, 0.0003192298754584044, 0.09485223144292831, -0.06643206626176834, 0.02018159255385399, -0.11942081898450851, 0.05130472406744957, 0.01634114980697632, -0.1030067577958107, -0.02637268230319023, 0.05180693417787552, 0.09110055863857269, -0.13975171744823456, -0.0029570681508630514, 0.19564932584762573, 0.09569376707077026, 0.1320531964302063, 0.10176415741443634, -0.09678259491920471, 0.032318051904439926, -0.1442408263683319, 0.021947810426354408, 0.05340660363435745, 0.00907161459326744, -0.10402186214923859, -0.1936003863811493, 0.017273830249905586, -0.09101375937461853, -0.12455078214406967, 0.16640163958072662, -0.15738113224506378, 0.10634736716747284, 0.14144542813301086, 0.02359623834490776, 0.09228962659835815, -0.1498469114303589, 0.0528763085603714, -0.04418466240167618, 0.05797015130519867, 0.014491088688373566, -0.043035395443439484, -0.0006384174921549857, 0.05836839601397514, 0.029184632003307343, -0.05925197899341583, -0.12377292662858963, -0.12723873555660248, 0.13156412541866302, -0.09489089250564575, -0.032533928751945496, 0.03803645074367523, -0.07940931618213654, 0.064541295170784, 0.099636510014534, -0.14766517281532288, -0.08831842243671417, 0.09509369730949402, -0.11347001791000366, -0.09367319941520691, -0.02911236137151718, 0.0037705753929913044, 0.04740557447075844, -0.10600873827934265, -0.0021598003804683685, 0.10157620906829834, 0.10383951663970947], [-0.017699571326375008, 0.12015123665332794, 0.0360075943171978, -0.09345997124910355, -0.023316143080592155, 0.1386646181344986, 0.07266823202371597, -0.12896566092967987, 0.12514273822307587, 0.016008062288165092, 0.0025086854584515095, 0.13987140357494354, -0.1505114585161209, -0.005889383144676685, 0.021855013445019722, -0.12183041125535965, 0.01835554465651512, 0.005670798011124134, -0.08107268810272217, -0.0067108250223100185, -0.08051765710115433, 0.018982453271746635, -0.013559498824179173, 0.12956851720809937, -0.03111109882593155, -0.07117101550102234, -0.08403781056404114, 0.09097351878881454, 0.0818842425942421, -0.11336999386548996, 0.04921232536435127, 0.023868657648563385, 0.06265893578529358, 0.010939058847725391, 0.15163181722164154, 0.12450851500034332, 0.14842700958251953, -0.0787784606218338, -0.07549561560153961, 0.03681928664445877, -0.0013850461691617966, -0.026759030297398567, 0.012436768040060997, -0.0023473685141652822, 0.005067863035947084, 0.11758637428283691, 0.12110289186239243, 0.04523300379514694, -0.07883458584547043, -0.0353340245783329, 0.03860350325703621, 0.0010987753048539162, -0.05688856542110443, -0.13306468725204468, 0.06295790523290634, 0.09922869503498077, 0.15814971923828125, 0.13615672290325165, 0.17538736760616302, -0.13545359671115875, 0.1911592185497284, 0.10597115755081177, 0.021428678184747696, 0.05404546856880188, -0.03936484456062317, 0.05042789503931999, 0.005426923744380474, -0.08078700304031372, 0.08918482810258865, -0.15226571261882782, 0.014457736164331436, -0.13416719436645508, 0.013994288630783558, -0.11472994834184647, 0.1299164891242981, 0.10719043016433716, -0.09387154877185822, -0.026480143889784813, -0.06655479967594147, 0.013111148960888386, 0.12742601335048676, 0.05836442857980728, 0.014371402561664581, 0.09219062328338623, 0.0787159651517868, -0.03351404517889023, 0.1307619959115982, 0.002624667016789317, 0.04772939905524254, -0.15100038051605225, -0.1091923862695694, 0.005423393566161394, -0.00999242253601551, -0.014380315318703651, 0.1713017374277115, -0.06321703642606735, -0.014008760452270508, -0.046269819140434265, 0.11227638274431229, -0.018941784277558327], [-0.044589824974536896, -0.17716120183467865, -0.135084867477417, -0.03355198726058006, -0.0985637977719307, -0.10570399463176727, 0.03448066860437393, -0.14321032166481018, 0.02267356961965561, -0.10679736733436584, -0.044603101909160614, -0.06753968447446823, -0.02650590054690838, 0.0590338334441185, 0.03548257797956467, -0.18074853718280792, -0.11023015528917313, 0.015998641029000282, -0.14758433401584625, 0.04138893261551857, 0.024879904463887215, -0.11130192875862122, 0.1003108099102974, -0.21432064473628998, 0.040999915450811386, 0.1425374150276184, -0.1238921508193016, -0.1642885059118271, -0.026731235906481743, -0.13180331885814667, -0.09290801733732224, -0.14087440073490143, -0.10073497146368027, 0.1505291610956192, 0.17020967602729797, 0.016850203275680542, 0.1596471667289734, 0.1632234901189804, 0.11810220032930374, 0.13221454620361328, 0.05451212078332901, -0.18064267933368683, -0.09178274124860764, -0.09651164710521698, 0.10776276886463165, 0.026551248505711555, -0.08918898552656174, 0.07606781274080276, -0.01933714561164379, -0.11572375148534775, 0.02857682667672634, 0.09708929061889648, 0.0012019486166536808, -0.014758705161511898, 0.07939667254686356, 0.008409952744841576, -0.0771261677145958, 0.10918362438678741, 0.010763630270957947, 0.15548880398273468, -0.09520682692527771, -0.1841016411781311, 0.14256344735622406, -0.014801192097365856, -0.03909653052687645, 0.08367969840765, -0.1947084367275238, -0.07693195343017578, -0.04768635332584381, 0.1172841414809227, 0.1018887460231781, -0.01524117961525917, -0.05995308607816696, 0.04405003413558006, 0.14250589907169342, 0.0781814306974411, 0.16213616728782654, -0.005629895720630884, 0.14561419188976288, -0.008844672702252865, 0.12117868661880493, 0.1510743647813797, -0.05614727362990379, -0.07923555374145508, -0.14928951859474182, 0.07065309584140778, -0.0670587345957756, 0.07487422227859497, 0.06304466724395752, 0.05992930755019188, -0.11356653273105621, 0.05253862589597702, -0.13688790798187256, 0.16221824288368225, 0.05252142250537872, -0.14493142068386078, -0.07703644037246704, -0.08236149698495865, -0.0944175198674202, 0.031650394201278687], [-0.07261643558740616, -0.020052608102560043, -0.027605721727013588, 0.08161704242229462, 0.11162411421537399, -0.0004050461284350604, 0.11574725061655045, 0.019203495234251022, -0.19042900204658508, -0.039755482226610184, -0.1422528624534607, 0.06243705749511719, -0.15885530412197113, 0.1381952464580536, 0.08859133720397949, 0.038318388164043427, -0.09595207870006561, -0.072398342192173, 0.008029652759432793, 0.10874558240175247, 0.18857817351818085, 0.02086472325026989, -0.08595354110002518, -0.14689473807811737, 0.1647590696811676, -0.04004816710948944, -0.042770687490701675, 0.09801033139228821, 0.04135514423251152, -0.19308410584926605, 0.08700984716415405, 0.1194530725479126, -0.09987588971853256, -0.0780368223786354, 0.1158071756362915, 0.020955853164196014, 0.17459115386009216, 0.1717493236064911, -0.030949821695685387, -0.035944558680057526, -0.13924896717071533, 0.05730544403195381, 0.11895375698804855, 0.10056789964437485, -0.10365427285432816, -0.002310855546966195, 0.08829957991838455, -0.05136486142873764, 0.12925252318382263, -0.1752495914697647, -0.13744474947452545, -0.04784499481320381, 0.044992752373218536, -0.09086715430021286, -0.036610495299100876, -0.0879497081041336, -0.13592423498630524, -0.16088484227657318, -0.1229652389883995, 0.1423010528087616, -0.01648087613284588, 0.11766311526298523, 0.1103406473994255, 0.14085419476032257, 0.20689775049686432, 0.1399514377117157, -0.12595511972904205, 0.006984275300055742, -0.09951237589120865, 0.030735526233911514, -0.13087381422519684, 0.046166423708200455, 0.08867521584033966, 0.0003478149592410773, -0.17749592661857605, 0.07644351571798325, -0.10291454195976257, 0.14634113013744354, -0.12482459843158722, 0.0266319140791893, -0.02031165547668934, -0.06629214435815811, 0.0496484749019146, -0.14822205901145935, 0.18056121468544006, 0.025333454832434654, 0.005966246593743563, 0.04356370493769646, 0.1658075600862503, -0.0824134349822998, -0.0345442034304142, -0.17496006190776825, -0.15333348512649536, 0.011843089945614338, 0.020209593698382378, -0.13140809535980225, -0.02013307437300682, 0.10743861645460129, 0.01962912455201149, 0.12309536337852478], [0.001994671765714884, 0.1519511640071869, -0.04630075767636299, -0.0863000750541687, 0.049989353865385056, 0.042796503752470016, 0.10777353495359421, 0.007663853000849485, -0.01847868226468563, -0.013239989057183266, -0.02503725327551365, 0.14656302332878113, 0.18796269595623016, -0.06104760617017746, -0.06624124199151993, 0.01740727201104164, -0.11494841426610947, -0.05825091525912285, 0.023613227531313896, -0.1475871205329895, -0.13561658561229706, 0.0758385956287384, 0.13641197979450226, -0.09605722874403, -0.09848552942276001, -0.0753534808754921, -0.045987267047166824, -0.0463702492415905, 0.0014514897484332323, -0.006772221531718969, -0.13475139439105988, -0.0532805509865284, 0.07167509943246841, -0.05522410199046135, 0.02311258390545845, 0.13564631342887878, -0.056542206555604935, -0.005136190447956324, 0.08922801166772842, 0.08014807105064392, -0.12593896687030792, -0.04358349367976189, 0.11351827532052994, -0.12970654666423798, -0.13118742406368256, -0.14669588208198547, 0.10436393320560455, -0.08793243020772934, 0.06377728283405304, 0.17571206390857697, 0.06250549107789993, 0.15977197885513306, -0.019361289218068123, 0.014554562047123909, -0.05061851069331169, 0.0104851508513093, -0.16556128859519958, -0.10976355522871017, -0.0363849401473999, 0.16012486815452576, 0.03653332591056824, 0.06542830169200897, 0.15689650177955627, -0.11586619168519974, -0.032030001282691956, 0.0903664231300354, -0.16630862653255463, -0.1929488182067871, 0.17394131422042847, 0.001499574864283204, -0.00564194843173027, 0.03122122213244438, -0.03169253468513489, 0.029632404446601868, -0.11012911051511765, 0.12631219625473022, -0.0910702496767044, -0.12114641815423965, 0.07087179273366928, -0.11193180084228516, -0.11205224692821503, -0.07901696115732193, -0.06831077486276627, -0.1713293045759201, -0.1379147320985794, -0.06865017861127853, 0.12998045980930328, 0.06894571334123611, 0.13532580435276031, -0.1330633908510208, -0.07004838436841965, 0.0508488193154335, 0.1747055947780609, 0.117316834628582, -0.011315742507576942, 0.07790536433458328, -0.0023987910244613886, 0.14573752880096436, 0.10404922813177109, 0.1722971498966217], [-0.061793990433216095, 0.10985815525054932, -0.08756023645401001, 0.07172702997922897, -0.07869604229927063, 0.02979399636387825, -0.026766501367092133, 0.06665365397930145, 0.14879581332206726, 0.07099362462759018, 0.16081880033016205, 0.15980756282806396, -0.10560786724090576, 0.036596011370420456, -0.17806421220302582, -0.044265128672122955, 0.010392305441200733, -0.13262522220611572, -0.08780116587877274, 0.12038305401802063, -0.15395894646644592, 0.03508080169558525, 0.11521006375551224, -0.16144107282161713, -0.11296766996383667, -0.04568275064229965, -0.0730329230427742, 0.06646037101745605, -0.02641373500227928, -0.0637332946062088, -0.1871906965970993, -0.052569758147001266, -0.16323508322238922, 0.014365236274898052, 0.12088125944137573, -0.07795929163694382, 0.12630341947078705, -0.09497039765119553, -0.06133152171969414, 0.09871082007884979, -0.08274870365858078, -0.0351659320294857, -0.10918061435222626, 0.1486489176750183, 0.11845260113477707, -0.11223182082176208, 0.13246259093284607, 0.025609049946069717, -0.006185912061482668, 0.13225959241390228, -0.04600505903363228, 0.0204192865639925, 0.051351092755794525, 0.12595805525779724, -0.019148943945765495, -0.09539808332920074, -0.04399159550666809, 0.05963708460330963, 0.08314429223537445, 0.15780118107795715, -0.16631445288658142, 0.008837969042360783, -0.05365706980228424, 0.06004711240530014, 0.010011971928179264, -0.12739601731300354, -0.1755632609128952, -0.04000586271286011, -0.17171034216880798, -0.012446457520127296, 0.05177459865808487, 0.09948751330375671, 0.022862756624817848, -0.10254640132188797, 0.07090174406766891, 0.05507956072688103, -0.02268281951546669, 0.06879978626966476, -0.15620110929012299, 0.007495447527617216, 0.12307753413915634, -0.12677179276943207, -0.1171201542019844, -0.11475799232721329, -0.13874255120754242, 0.0636649951338768, 0.059911638498306274, 0.15929175913333893, -0.008448954671621323, 0.11002358794212341, 0.1274266093969345, -0.11351825296878815, 0.08775605261325836, -0.025504332035779953, -0.1146530881524086, 0.15653946995735168, 0.05630730465054512, -0.02446790784597397, -0.049485016614198685, -0.0014725052751600742], [0.06572234630584717, -0.17177990078926086, -0.07611069083213806, -0.1515262871980667, 0.025797275826334953, -0.10587798804044724, 0.023554766550660133, 0.03664829209446907, -0.020303921774029732, 0.004967064596712589, -0.1266416758298874, -0.01079732459038496, 0.05955513194203377, 0.12090502679347992, -0.17698486149311066, 0.10398762673139572, -0.0960090309381485, 0.15281541645526886, 0.1269199699163437, 0.09352274239063263, 0.02909599058330059, 0.11391682922840118, -0.12199600040912628, 0.16439251601696014, 0.19167160987854004, 0.1654944270849228, 0.15110917389392853, -0.058625541627407074, -0.1575649231672287, 0.06697595864534378, -0.1453508734703064, 0.0756123885512352, 0.10036063939332962, -0.1581999510526657, 0.0647565945982933, -0.107099249958992, 0.12939786911010742, -0.08003640174865723, 0.12611506879329681, -0.11280077695846558, 0.016779866069555283, 0.13604915142059326, 0.05367426201701164, 0.10184802860021591, -0.09747897833585739, -0.052983060479164124, -0.1580996811389923, -0.14570419490337372, 0.11177411675453186, -0.10623987764120102, -0.08748964965343475, 0.10332587361335754, 0.14878302812576294, 0.15065380930900574, -0.08112657070159912, -0.001987548777833581, 0.13031305372714996, -0.0035637966357171535, 0.08062006533145905, -0.07718989998102188, 0.12937261164188385, -0.039611317217350006, -0.10455241799354553, -0.14194518327713013, 0.08387748897075653, 0.04900779575109482, -0.13062059879302979, 0.08415926247835159, 0.10611867159605026, 0.006981322076171637, 0.1560671478509903, 0.08539722859859467, -0.07139573246240616, -0.08331426233053207, -0.07374518364667892, 0.13004790246486664, -0.1785144805908203, 0.09265188127756119, -0.16415570676326752, 0.056065354496240616, 0.08321220427751541, 0.02163688652217388, -0.06758555769920349, -0.030594538897275925, 0.12232325226068497, 0.1392277032136917, -0.1516062468290329, -0.012407212518155575, 0.09341151267290115, 0.042201172560453415, -0.19627273082733154, 0.05283453315496445, -0.03497282415628433, -0.05845929682254791, -0.02556782402098179, -0.10731233656406403, -0.1080392524600029, -0.10999283194541931, 0.10663290321826935, -0.1368602216243744], [0.0954786017537117, 0.03393173590302467, 0.12728281319141388, -0.11753576248884201, 0.12896333634853363, -0.12315236032009125, -0.11484140157699585, 0.04802711680531502, -0.01697879284620285, 0.08825657516717911, -0.04011949151754379, -0.02973897196352482, -0.02256280742585659, 0.005094694904983044, -0.14199617505073547, 0.03540671244263649, -0.022872131317853928, 0.014074869453907013, 0.09416081756353378, 0.02031380496919155, 0.013426191173493862, 0.1302550882101059, 0.13815489411354065, -0.12888963520526886, 0.037509918212890625, -0.19644413888454437, 0.048329390585422516, 0.12184663116931915, -0.06279081106185913, 0.015967201441526413, -0.09383323788642883, 0.17457155883312225, 0.007928264327347279, -0.09863796830177307, -0.10558225959539413, 0.17871926724910736, -0.0444142147898674, -0.01502013485878706, -0.16485922038555145, -0.1449889987707138, 0.004675849340856075, -0.0911710187792778, 0.019121721386909485, -0.1970737725496292, 0.042064107954502106, -0.1829477995634079, 0.01846635341644287, 0.08951206505298615, 0.06615367531776428, 0.005883405450731516, 0.09646874666213989, -0.04741164296865463, 0.04092099890112877, -0.049947913736104965, 0.08716841787099838, 0.1495659202337265, -0.18442848324775696, -0.07609451562166214, 0.040456030517816544, -0.17903831601142883, 0.04970264062285423, 0.06529227644205093, 0.08523451536893845, 0.0006231131264939904, 0.01956186257302761, -0.12691396474838257, -0.072175532579422, -0.14529447257518768, -0.13298897445201874, -0.009683465585112572, 0.09612907469272614, 0.015205242671072483, -0.1017514318227768, -0.03931127488613129, 0.09617237001657486, 0.0011887921718880534, -0.15344330668449402, 0.05008095130324364, -0.12826122343540192, 0.15677471458911896, 0.18026591837406158, -0.03679449483752251, -0.062418967485427856, 0.18797704577445984, 0.03419465199112892, 0.08625702559947968, -0.11637965589761734, -0.10873868316411972, -0.06976737827062607, -0.13612277805805206, 0.11537303775548935, -0.08343270421028137, 0.10917908698320389, 0.08244985342025757, -0.013124855235219002, 0.020571384578943253, -0.14197787642478943, -0.10035420209169388, -0.061666037887334824, -0.0736764669418335], [0.07555004954338074, 0.1505695879459381, 0.1286962479352951, -0.0744447261095047, 0.08448765426874161, -0.04599899798631668, -0.08949548751115799, -0.03160497918725014, 0.12730273604393005, 0.04807780683040619, -0.10782534629106522, -0.14978499710559845, -0.06214362382888794, -0.013767169788479805, -0.16937637329101562, 0.15489250421524048, -0.010636378079652786, -0.07835761457681656, 0.20761573314666748, -0.0843290463089943, 0.2066630870103836, 0.013902436941862106, -0.08711440861225128, 0.08523054420948029, -0.003268961561843753, 0.003141882363706827, -0.12826526165008545, -0.16097091138362885, -0.13450491428375244, 0.09816786646842957, -0.09449608623981476, 0.01269335113465786, -0.16969339549541473, -0.048012133687734604, 0.1657242625951767, -0.04599309712648392, 0.03403002768754959, -0.11672203987836838, 0.152587428689003, 0.1098986342549324, -0.005955814849585295, -0.05421959608793259, -0.05191042274236679, -0.04275259003043175, -0.14892759919166565, -0.1437366008758545, 0.11846744269132614, -0.1449311077594757, 0.018676375970244408, -0.15370221436023712, -0.09976623207330704, -0.07630977779626846, 0.16967390477657318, 0.049725137650966644, 0.09935123473405838, 0.1700730174779892, 0.15934604406356812, -0.11955983191728592, 0.12036079913377762, -0.07683385908603668, -0.09285451471805573, 0.13069818913936615, -0.15787488222122192, 0.012183780781924725, -0.14081454277038574, 0.02567702904343605, -0.020478952676057816, -0.05858723446726799, -0.11768578737974167, -0.07680720090866089, 0.16966940462589264, -0.027901874855160713, -0.14074595272541046, -0.0676732212305069, 0.0002942292485386133, 0.1609848588705063, -0.11026149988174438, 0.1300603747367859, -0.08862829953432083, -0.11782657355070114, -0.05807635933160782, -0.12089604884386063, 0.08885287493467331, -0.06526824086904526, -0.005812156014144421, -0.117705337703228, 0.14353163540363312, -0.12308941781520844, 0.023675018921494484, 0.06848151236772537, 0.08424418419599533, -0.03802286460995674, -0.05667724832892418, 0.11001109331846237, -0.19107680022716522, 0.037841878831386566, -0.18607430160045624, 0.1098635196685791, 0.11452825367450714, 0.008595098741352558], [-0.14404575526714325, -0.11822010576725006, -0.09814563393592834, -0.10385166853666306, -0.007539034355431795, 0.022449124604463577, -0.07859762758016586, 0.023546608164906502, 0.015296210534870625, -0.08809810876846313, -0.09887410700321198, -0.05687425658106804, -0.041023172438144684, 0.10362269729375839, 0.17353074252605438, 0.11222212016582489, 0.12297412008047104, 0.12364025413990021, 0.11227524280548096, -0.16825664043426514, -0.1552421599626541, -0.13882090151309967, -0.049859460443258286, 0.1327390968799591, -0.1831289827823639, -0.17659305036067963, -0.07884437590837479, -0.1044396311044693, -0.13651902973651886, 0.06604547053575516, 0.15861158072948456, -0.061406075954437256, -0.11831418424844742, 0.060058169066905975, -0.09659764170646667, -0.09817517548799515, 0.1854112446308136, -0.11671261489391327, 0.16364501416683197, -0.10207364708185196, -0.14943332970142365, -0.16479746997356415, -0.07852517068386078, -0.0398675911128521, 0.09090852737426758, -0.0457928404211998, -0.14546380937099457, 0.041930679231882095, -0.04696540907025337, 0.15541310608386993, -0.12759551405906677, 0.1404731422662735, -0.12210435420274734, -0.15484242141246796, 0.1459513008594513, 0.06355434656143188, -0.091970294713974, -0.16288122534751892, -0.06397461146116257, -0.05775860697031021, -0.15422555804252625, -0.03685060888528824, 0.1498723030090332, 0.12513111531734467, 0.012219497002661228, 0.008603574708104134, 0.0984288901090622, 0.05702345445752144, 0.17690901458263397, 0.011233381927013397, 0.10493247210979462, -0.12602972984313965, -0.12867289781570435, -0.0034018317237496376, -0.06115492805838585, -0.12551024556159973, 0.06739837676286697, 0.0787031427025795, -0.1467377245426178, 0.09726275503635406, -0.15002915263175964, 0.14902092516422272, 0.1014762595295906, 0.04409342259168625, -0.035384077578783035, -0.1472761482000351, 0.15958091616630554, -0.12978273630142212, -0.06814214587211609, 0.08372030407190323, 0.12549829483032227, -0.03742242604494095, -0.13241493701934814, -0.13706490397453308, -0.11832547932863235, -0.11690902709960938, 0.009248845279216766, -0.15016736090183258, -0.10601552575826645, -0.023372502997517586], [-0.06507782638072968, 0.04882325977087021, -0.008753640577197075, -0.04140433669090271, 0.05282064899802208, 0.05246637016534805, 0.053749099373817444, -0.02957070618867874, -0.16244201362133026, -0.13984395563602448, 0.07331380993127823, -0.06920250505208969, 0.0756906196475029, 0.10330780595541, -0.21137462556362152, -0.010023721493780613, -0.177541583776474, 0.20216815173625946, -0.01924498938024044, -0.03453734517097473, -0.14976488053798676, -0.13395176827907562, -0.06873053312301636, -0.06757501512765884, -0.12922203540802002, -0.1895556002855301, 0.09365780651569366, 0.051017820835113525, 0.10691609978675842, 0.08204728364944458, -0.15737061202526093, -0.08588099479675293, 0.008198694325983524, 0.002583347726613283, 0.12290812283754349, 0.009999359026551247, 0.15201827883720398, 0.1670742630958557, -0.051554564386606216, 0.16534441709518433, -0.1479218602180481, 0.10825033485889435, -0.007630448322743177, 0.12825292348861694, -0.011989091522991657, 0.13314683735370636, 0.06771443784236908, -2.7142719773110002e-05, -0.07557214051485062, -0.07893133908510208, 0.006716294679790735, -0.16370174288749695, -0.00019562609668355435, -0.07868266105651855, -0.11496201157569885, 0.050375305116176605, 0.1877235472202301, -0.046625733375549316, -0.19113686680793762, -0.07165831327438354, -0.170157328248024, 0.13538561761379242, -0.00020080452668480575, 0.0954660177230835, -0.13087257742881775, -0.015453768894076347, -0.03270148113369942, -0.022074293345212936, 0.188548281788826, -0.035801634192466736, 0.007642470300197601, -0.12400563061237335, 0.15222275257110596, 0.1718437522649765, 0.10108896344900131, -0.053888607770204544, 0.13538481295108795, -0.11420419067144394, -0.02877236157655716, -0.05610448122024536, 0.07920952141284943, 0.15572799742221832, -0.03743060678243637, -0.08376459777355194, 0.03788156062364578, 0.16573813557624817, -0.06438162177801132, 0.060128435492515564, -0.16044981777668, 0.11287041753530502, -0.11590789258480072, -0.01390968356281519, -0.16864217817783356, 0.06191716715693474, -0.035634346306324005, 0.039931636303663254, -0.06265605241060257, 0.07575998455286026, 0.014792388305068016, -0.12706978619098663], [0.036122191697359085, 0.06884026527404785, -0.08588369190692902, -0.03687538951635361, 0.09627681970596313, 0.01582864113152027, 0.018293684348464012, -0.04977959766983986, -0.14625348150730133, -0.04085533693432808, 0.10128238052129745, 0.12005327641963959, 0.16772951185703278, -0.015237112529575825, 0.020061073824763298, -0.026323938742280006, -0.00016431334370281547, 0.20751923322677612, -0.10060486197471619, -0.0748346596956253, 0.08052164316177368, -0.0630059689283371, -0.10136882960796356, 0.06969496607780457, 0.11989188939332962, 0.0801277905702591, 0.011708525009453297, -0.14703434705734253, -0.18613289296627045, 0.08942773938179016, 0.1718635857105255, -0.02981908991932869, -0.056440435349941254, 0.17253340780735016, -0.030783385038375854, 0.09801504015922546, -0.1602715700864792, -0.09123357385396957, -0.11168844997882843, 0.02219208888709545, -0.11503051966428757, 0.04377921298146248, -0.12968787550926208, 0.08910442888736725, -0.13596680760383606, 0.05694717913866043, -0.06416454166173935, 0.1160385012626648, -0.05150115489959717, -0.08937035501003265, -0.13282503187656403, -0.12796829640865326, 0.14804814755916595, 0.047210488468408585, 0.09025440365076065, 0.03232555836439133, -0.044733330607414246, -0.059864312410354614, 0.09139907360076904, -0.1816830039024353, -0.0026418929919600487, 0.08322922140359879, -0.1654692441225052, -0.07636893540620804, 0.16229315102100372, -0.0540950782597065, -0.10293083637952805, -0.13010774552822113, 0.09209630638360977, -0.02923656441271305, -0.10295938700437546, -0.065761037170887, -0.017280930653214455, 0.09866467118263245, 0.1364719420671463, -0.1318938434123993, 0.06678994745016098, -0.08768319338560104, -0.06875258684158325, 0.08128112554550171, -0.1421218067407608, 0.08511409908533096, -0.09618233889341354, -0.028635462746024132, -0.11116030812263489, -0.01963924430310726, -0.1901387870311737, -0.0674024149775505, 0.018366390839219093, -0.05568192899227142, 0.1941373646259308, 0.1585206687450409, 0.18285489082336426, 0.041371122002601624, -0.14050963521003723, 0.03655628114938736, 0.058009546250104904, 0.05906933918595314, -0.07301913946866989, -0.15786322951316833], [-0.07410162687301636, 0.04942004755139351, 0.030212294310331345, 0.07626800984144211, -0.14129523932933807, 0.12421887367963791, -0.08080146461725235, -0.10159426927566528, -0.13284577429294586, 0.15163634717464447, -0.09667347371578217, 0.004094786010682583, -0.12989118695259094, 0.04800768941640854, -0.18397396802902222, 0.12432446330785751, 0.014637550339102745, -0.11420242488384247, 0.03835960105061531, 0.05599197745323181, 0.04482027515769005, 0.16785314679145813, -0.17621013522148132, -0.03449840098619461, 0.14586175978183746, 0.10059100389480591, -0.12033675611019135, 0.1870560646057129, -0.021570738404989243, 0.058629777282476425, -0.08634874224662781, 0.03568856790661812, 0.1113089770078659, -0.1123419776558876, 0.011945286765694618, -0.12523280084133148, 0.11402461677789688, -0.1626664698123932, -0.15486186742782593, 0.06801055371761322, -0.19623856246471405, 0.006712282542139292, 0.10884454846382141, 0.18232043087482452, 0.09378403425216675, -0.056269966065883636, -0.11806080490350723, -0.0698029026389122, -0.17240707576274872, 0.14185717701911926, -0.034664031118154526, 0.00017661940364632756, -0.10098674893379211, -0.05659785494208336, -0.1844179630279541, 0.11536325514316559, -0.03102157637476921, -0.09353057295084, 0.11788058280944824, -0.04844638705253601, 0.21840429306030273, 0.20645004510879517, 0.2499960958957672, 0.12153017520904541, 0.0696755051612854, -0.10958540439605713, -0.050411295145750046, -0.08096960186958313, 0.17466218769550323, -0.09230780601501465, 0.08628740906715393, -0.1210164949297905, -0.15355227887630463, -0.2492915838956833, -0.12851525843143463, -0.04534034803509712, -0.05424105003476143, 0.03682609647512436, 0.002278922125697136, 0.08585216104984283, 0.07322898507118225, 0.19372917711734772, -0.12383081763982773, 0.00648547662422061, -0.1156100183725357, 0.09028305113315582, -0.1351938247680664, -0.04113491252064705, 0.02010449953377247, -0.16588374972343445, -0.05423080176115036, -0.05004916340112686, 0.11633317917585373, 0.15226003527641296, -0.15912476181983948, 0.00022193638142198324, 0.08232976496219635, 0.07752575725317001, 0.1423783153295517, 0.061842337250709534], [0.10055705159902573, -0.05918441712856293, 0.08416463434696198, -0.1219913437962532, -0.06549841910600662, 0.01881852187216282, 0.12016598880290985, -0.07909510284662247, 0.10902290046215057, -0.0016420417232438922, -0.04361817613244057, 0.09003110229969025, 0.12153898179531097, -0.06040841341018677, -0.12077698856592178, -0.07366281747817993, 0.005171029828488827, -0.1352381408214569, -0.02794153429567814, -0.08440803736448288, -0.08348382264375687, -0.14938385784626007, 0.09440536797046661, 0.10922852158546448, 0.02893434278666973, -0.03480519354343414, 0.11947396397590637, 0.12491050362586975, -0.0840950682759285, 0.09178990870714188, 0.15233619511127472, 0.017404472455382347, -0.07295908778905869, -0.14393922686576843, -0.14977824687957764, 0.164311945438385, -0.007833592593669891, 0.12056490033864975, -0.17534147202968597, 0.08212689310312271, -0.11224213987588882, 0.02433912269771099, 0.09043309092521667, 0.08822251856327057, 0.17884160578250885, 0.10607121139764786, -0.0343141034245491, 0.1224604994058609, 0.14658688008785248, 0.17277224361896515, 0.13800965249538422, -0.15753498673439026, -0.06825394183397293, 0.12851616740226746, -0.037177253514528275, -0.0008628333453088999, 0.02695317566394806, 0.14830787479877472, 0.11406105011701584, 0.063701331615448, 0.005725320428609848, -0.04403230547904968, -0.13195692002773285, -0.02091457135975361, 0.11645282804965973, -0.0767042487859726, 0.11675621569156647, 0.19000616669654846, 0.07582464069128036, -0.07909902930259705, -0.0013120044022798538, -0.11385690420866013, 0.10173334926366806, -0.05323777720332146, 0.009497123770415783, -0.012197423726320267, -0.05126151815056801, -0.015545343980193138, 0.06419997662305832, 0.13992933928966522, -0.15324047207832336, 0.12310812622308731, -0.044290948659181595, 0.013316567055881023, 0.13190031051635742, 0.16073043644428253, -0.050405535846948624, -0.00032898251083679497, -0.13046574592590332, -0.059624914079904556, -0.11974461376667023, 0.16866981983184814, -0.02323557808995247, -0.1051892638206482, 0.09857147186994553, 0.07905489206314087, -0.10113920271396637, 0.008980081416666508, -0.05805911123752594, -0.15249815583229065], [0.1096835657954216, 0.026658279821276665, 0.14076533913612366, 0.0786421075463295, 0.12381909042596817, 0.11878624558448792, 0.0012095727724954486, -0.1715695559978485, -0.07012422382831573, -0.09628693014383316, -0.05553014203906059, 0.10886825621128082, -0.09455905854701996, -0.004269936587661505, 0.09458202868700027, -0.0064625428058207035, -0.1460062861442566, -0.006759608630090952, 0.11723069101572037, -0.051018934696912766, -0.18616189062595367, 0.014137211255729198, 0.1440763920545578, 0.0658702403306961, -0.17838697135448456, -0.09095847606658936, 0.07693655043840408, -0.08921502530574799, -0.09993717819452286, -0.03914919123053551, -0.0680299699306488, -0.045454077422618866, 0.11907676607370377, 0.12915447354316711, 0.0025185751728713512, -0.09757771342992783, -0.05990118533372879, -0.16285866498947144, 0.03717545047402382, 0.06634221225976944, 0.147934228181839, 0.06492017209529877, 0.0741858258843422, 0.03850743919610977, -0.0059850942343473434, 0.006503865588456392, -0.04487039893865585, 0.09482908993959427, 0.13294313848018646, 0.0751441940665245, 0.06093066558241844, -0.09162351489067078, -0.16979922354221344, 0.10069438070058823, -0.11966325342655182, -0.14003099501132965, 0.15398737788200378, -0.036693025380373, -0.021320877596735954, -0.10705685615539551, 0.12029222398996353, -0.0013966282131150365, -0.03242507949471474, 0.018962664529681206, -0.04468309506773949, -0.014394314028322697, 0.11766302585601807, -0.012408127076923847, -0.12577281892299652, 0.14842748641967773, -0.15208527445793152, -0.04436716437339783, -0.15800222754478455, -0.08121444284915924, -0.03319341316819191, -0.06762170046567917, 0.0018250277498736978, 0.12227296084165573, 0.08947465568780899, -0.10816984623670578, -0.08350756019353867, 0.01951530948281288, 0.06728976219892502, -0.01946321874856949, -0.1622658520936966, -0.021236827597022057, 0.11149078607559204, 0.0387735590338707, 0.16752399504184723, 0.08022751659154892, 0.0029534711502492428, -0.15150786936283112, -0.070462666451931, -0.1458522379398346, 0.04731932654976845, 0.18015463650226593, -0.09537941962480545, 0.06638648360967636, 0.004777280148118734, 0.007449957076460123], [-0.03548277169466019, -0.20325212180614471, -0.03553414344787598, -0.040387969464063644, 0.11035194247961044, 0.09676598012447357, -0.004836170934140682, -0.10859832167625427, 0.1316608488559723, 0.07918806374073029, 0.17839647829532623, 0.1463499367237091, 0.0876222625374794, -0.10670451074838638, -0.13168996572494507, 0.16609561443328857, -0.16803936660289764, 0.11544125527143478, -0.18171237409114838, 0.060440544039011, 0.07290270179510117, -0.09495560824871063, 0.14551608264446259, -0.09418915212154388, 0.13542494177818298, 0.04919592663645744, -0.12466653436422348, 0.16740575432777405, 0.20944732427597046, 0.14801304042339325, -0.07713674008846283, -0.006980642676353455, -0.03611094877123833, -0.05739577114582062, 0.11797214299440384, -0.05112200602889061, -0.16269035637378693, 0.04740675538778305, 0.022497737780213356, -0.051214799284935, 0.16483815014362335, 0.07591427117586136, -0.08559168875217438, 0.01807865872979164, 0.0837494283914566, 0.03762461990118027, 0.16699205338954926, 0.19135180115699768, 0.12421687692403793, 0.13223828375339508, -0.01687571592628956, -0.08405346423387527, -0.09218763560056686, -0.10133495926856995, 0.05053815245628357, -0.08413780480623245, 0.02688518725335598, 0.008762851357460022, -0.043374862521886826, -0.11979921162128448, -0.011639428324997425, -0.051536284387111664, -0.15445590019226074, 0.013127259910106659, -0.10053285211324692, -0.19657714664936066, 0.062041763216257095, 0.022315410897135735, 0.023014115169644356, 0.11121278256177902, -0.10080226510763168, 0.0790712907910347, -0.018347376957535744, -0.12800349295139313, -0.18446405231952667, -0.14346951246261597, -0.19502466917037964, -0.11991714686155319, -0.1141747459769249, 0.10939568281173706, -0.1603570580482483, 0.0039528850466012955, 0.019633984193205833, -0.11895675957202911, 0.0904504805803299, -0.04598144814372063, -0.019112352281808853, 0.1992434710264206, -0.10842717438936234, -0.03450817987322807, 0.11924780160188675, -0.022840039804577827, 0.09221000224351883, -0.07311762869358063, 0.07027561217546463, -0.053225137293338776, 0.11479254066944122, 0.0566481314599514, -0.004804093856364489, -0.08779024332761765], [0.06682305037975311, 0.11077198386192322, -0.03757215291261673, 0.18586702644824982, 0.13502494990825653, -0.16765446960926056, -0.16853104531764984, -0.1401200145483017, -0.006130463443696499, -0.16679739952087402, -0.13484959304332733, -0.153877392411232, -0.054459020495414734, 0.16965720057487488, 0.12234101444482803, 0.16339518129825592, 0.06671672314405441, 0.06435210257768631, 0.03120115026831627, -0.032250337302684784, 0.0474521741271019, -0.13499239087104797, -0.06755959242582321, -0.15881094336509705, -0.15617011487483978, -0.001902874675579369, 0.129688560962677, 0.04087276756763458, -0.1102973073720932, -0.07579856365919113, 0.17276132106781006, 0.20844662189483643, 0.2276841551065445, -0.08620025217533112, -0.19609065353870392, -0.004580652341246605, 0.1333172619342804, 0.11749105900526047, -0.056903623044490814, -0.18073847889900208, -0.033941734582185745, 0.08686456084251404, 0.0477263480424881, -0.09145525097846985, 0.038795337080955505, 0.04161493480205536, -0.15232375264167786, -0.13839814066886902, -0.14526475965976715, 0.05971449241042137, -0.01922912336885929, 0.059685930609703064, 0.11582169681787491, -0.0039062523283064365, 0.12330737709999084, 0.019038638100028038, 0.11849050968885422, -0.12585465610027313, 0.008344602771103382, -0.06090705096721649, -0.04805856570601463, -0.16847224533557892, -0.04917139932513237, 0.12608353793621063, 0.17887188494205475, 0.1187743991613388, -0.006804563570767641, -0.0540042445063591, -0.09503071755170822, 0.08520714938640594, 0.13639695942401886, 0.14910978078842163, 0.08926234394311905, -0.09143267571926117, 0.14183738827705383, 0.056100472807884216, 0.054169200360774994, -0.16709332168102264, -0.15798714756965637, -0.05644211173057556, -0.1233472228050232, 0.0003852926311083138, -0.09576059877872467, 0.030191021040081978, -0.014598005451261997, 0.014536391943693161, -0.09306085109710693, 0.09224336594343185, 0.11339261382818222, -0.10594707727432251, -0.0446193553507328, -0.033971600234508514, 0.00550945894792676, -0.007791338488459587, 0.04004257172346115, 0.059601981192827225, 0.01759958639740944, 0.1287701427936554, -0.03505077585577965, 0.1060032993555069], [-0.0031109978444874287, 0.07899961620569229, 0.004363976884633303, -0.1970537304878235, -0.07828448712825775, -0.10233733803033829, -0.13879235088825226, -0.09811986982822418, 0.16091367602348328, 0.008876238949596882, 0.0831795260310173, -0.044326771050691605, -0.15436534583568573, 0.13651803135871887, -0.04841311648488045, 0.14545805752277374, -0.049004413187503815, -0.04291752725839615, -0.15263134241104126, 0.08725622296333313, -0.19170980155467987, -0.032005589455366135, 0.10269149392843246, -0.008447034284472466, 0.052018675953149796, 